{"learner":{"attributes":{},"feature_names":["3","4","5","6","8","9","12","17","18","19","20","22","23","25","26","31","32","33","34","35","36","37","39","40","45","46","47","48","49","50","51","53","54","59","60","61","62","64","65","66","68","69","74","75","76","77","79","80","81","83","84","89","90","91","92","94","95","96","98","99","104","105","106","107","108","109","111","112","113","114","115","116","117","118","119","120","121","122","123","124","125","126","127","128","129","130","131"],"feature_types":["int","int","int","int","int","int","int","int","int","int","int","int","int","int","int","int","int","int","int","int","int","int","int","int","int","int","int","int","int","int","int","int","int","int","int","int","int","int","int","int","int","int","int","int","int","int","int","int","int","int","int","int","int","int","int","int","int","int","int","int","int","int","int","int","int","int","int","int","int","int","int","int","int","int","int","int","int","int","int","int","int","int","int","int","int","int","int"],"gradient_booster":{"model":{"gbtree_model_param":{"num_parallel_tree":"1","num_trees":"10"},"iteration_indptr":[0,1,2,3,4,5,6,7,8,9,10],"tree_info":[0,0,0,0,0,0,0,0,0,0],"trees":[{"base_weights":[-1.655098E-6,-2.375658E0,1.0281574E1,-1.1512849E1,-3.0434838E-2,1.3508171E1,-4.135111E-2,-1.2237406E1,2.7395882E1,1.9913915E0,-5.3734303E0,1.5561369E1,6.4979706E0,4.1482987E0,-8.604338E0,-3.5845116E1,-1.1128381E1,2.5921566E1,1.9332901E1,3.569389E0,-3.7829928E0,3.6730995E0,-7.343019E0,1.5384557E1,1.2886232E1,3.7808309E0,1.028614E1,1.7736671E0,1.6465933E1,-7.2479157E0,-1.5504629E1,-3.3842373E1,-5.134346E1,-1.1945026E1,-6.408846E-1,2.305086E1,2.844715E1,3.3809388E0,3.5669838E1,-1.51642685E1,-3.0674407E0,-3.307943E0,1.3043512E1,-9.081259E0,-3.2526195E0,1.6871124E1,1.2097213E1,6.058491E0,2.4300652E0,1.327196E1,6.3579574E0,2.7132041E0,-2.4096273E1,1.6501074E1,3.3463066E0,-9.3784275E0,-3.5879257E0,-1.8268522E1,-1.0589037E1,-8.984972E0,-1.3216615E1,-1.7965176E1,-1.500261E1,-3.4896142E0,-9.672566E0,6.460173E-1,-3.1172588E0,6.39E0,9.037996E0,6.8301935E0,9.013049E0,1.5278481E0,3.7025025E-1,9.827621E0,1.1061398E1,-4.1401577E0,-6.2619257E0,2.7207065E0,-9.950116E-1,-6.3735294E-1,-3.5533786E0,4.512726E0,-2.3666787E0,-3.504144E0,-1.9865172E0,-1.7325294E0,2.9883367E-1,4.1816063E0,5.715654E0,3.712404E0,-2.198267E0,2.394976E0,1.1254822E0,-2.0146587E-1,9.655828E-1,2.6723938E0,4.3726516E0,2.5616689E0,9.6749514E-1,-1.2730808E0,1.2995244E0,-5.280042E0,-1.1100538E1,5.019965E0,4.7738843E0,-1.7196139E0,-2.9776073E0,-7.339114E-1,-2.68464E0,-4.1449156E0,-6.212985E0,-2.9996302E0,-6.392691E0],"categories":[],"categories_nodes":[],"categories_segments":[],"categories_sizes":[],"default_left":[0,0,0,0,0,0,0,0,0,0,0,0,0,0,0,0,0,0,0,0,0,0,0,0,0,0,0,0,0,0,0,0,0,0,0,0,0,0,0,0,0,0,0,0,0,0,0,0,0,0,0,0,0,0,0,0,0,0,0,0,0,0,0,0,0,0,0,0,0,0,0,0,0,0,0,0,0,0,0,0,0,0,0,0,0,0,0,0,0,0,0,0,0,0,0,0,0,0,0,0,0,0,0,0,0,0,0,0,0,0,0,0,0],"id":0,"left_children":[1,3,5,7,9,11,13,15,17,19,21,23,25,27,29,31,33,35,-1,37,39,41,43,45,-1,47,49,51,53,55,57,59,61,63,65,67,69,71,73,75,77,79,81,83,85,87,89,91,93,95,97,99,101,103,-1,105,107,109,111,-1,-1,-1,-1,-1,-1,-1,-1,-1,-1,-1,-1,-1,-1,-1,-1,-1,-1,-1,-1,-1,-1,-1,-1,-1,-1,-1,-1,-1,-1,-1,-1,-1,-1,-1,-1,-1,-1,-1,-1,-1,-1,-1,-1,-1,-1,-1,-1,-1,-1,-1,-1,-1,-1],"loss_changes":[1.0659725E7,7.5966205E6,2.728318E6,2.041574E6,3.0474375E6,8.9813E5,6.998672E5,1.860664E6,7.064531E4,1.86485E6,1.37992E6,2.33119E5,1.4549362E5,3.831145E5,5.9874062E4,9.72465E4,5.81483E5,8.5883125E3,0E0,9.7221375E5,3.576742E5,9.058481E5,4.52158E5,2.34169E5,0E0,2.532096E4,6.917444E4,2.6701562E5,2.11125E2,4.1746156E4,1.40991875E4,1.1106425E5,1.14325E3,3.9977E5,1.3368203E5,6.8162812E3,5.427125E3,5.872526E5,2.072875E3,1.9938312E4,1.2505516E5,8.014875E4,2.4748844E5,2.8524325E5,2.0329216E5,2.10944E5,8.06025E4,1.3579266E4,1.2649203E4,1.8949812E4,1.7409828E4,1.1936202E5,3.1625594E4,2.05E1,0E0,6.6958438E3,1.2052332E4,7.0182344E3,2.1977695E3,0E0,0E0,0E0,0E0,0E0,0E0,0E0,0E0,0E0,0E0,0E0,0E0,0E0,0E0,0E0,0E0,0E0,0E0,0E0,0E0,0E0,0E0,0E0,0E0,0E0,0E0,0E0,0E0,0E0,0E0,0E0,0E0,0E0,0E0,0E0,0E0,0E0,0E0,0E0,0E0,0E0,0E0,0E0,0E0,0E0,0E0,0E0,0E0,0E0,0E0,0E0,0E0,0E0,0E0],"parents":[2147483647,0,0,1,1,2,2,3,3,4,4,5,5,6,6,7,7,8,8,9,9,10,10,11,11,12,12,13,13,14,14,15,15,16,16,17,17,19,19,20,20,21,21,22,22,23,23,25,25,26,26,27,27,28,28,29,29,30,30,31,31,32,32,33,33,34,34,35,35,36,36,37,37,38,38,39,39,40,40,41,41,42,42,43,43,44,44,45,45,46,46,47,47,48,48,49,49,50,50,51,51,52,52,53,53,55,55,56,56,57,57,58,58],"right_children":[2,4,6,8,10,12,14,16,18,20,22,24,26,28,30,32,34,36,-1,38,40,42,44,46,-1,48,50,52,54,56,58,60,62,64,66,68,70,72,74,76,78,80,82,84,86,88,90,92,94,96,98,100,102,104,-1,106,108,110,112,-1,-1,-1,-1,-1,-1,-1,-1,-1,-1,-1,-1,-1,-1,-1,-1,-1,-1,-1,-1,-1,-1,-1,-1,-1,-1,-1,-1,-1,-1,-1,-1,-1,-1,-1,-1,-1,-1,-1,-1,-1,-1,-1,-1,-1,-1,-1,-1,-1,-1,-1,-1,-1,-1],"split_conditions":[1E0,1E0,1E0,1E0,1E0,8E0,9E0,1E0,2E0,1E0,6E0,1E0,2E0,1E0,1E0,1E0,1E0,1E1,1.9332901E1,1E0,1E0,1E0,1E0,4E0,1.2886232E1,2E0,1E0,1E0,1E0,1E0,2E0,1E0,4E0,1E0,1E0,3E0,1E0,1E0,1E0,1E0,6E0,1E0,1E0,2E0,2E0,6E0,1E0,3E0,1.1E1,1E0,1E0,1E0,1E0,3E0,3.3463066E0,5E0,1E0,1E0,2E0,-8.984972E0,-1.3216615E1,-1.7965176E1,-1.500261E1,-3.4896142E0,-9.672566E0,6.460173E-1,-3.1172588E0,6.39E0,9.037996E0,6.8301935E0,9.013049E0,1.5278481E0,3.7025025E-1,9.827621E0,1.1061398E1,-4.1401577E0,-6.2619257E0,2.7207065E0,-9.950116E-1,-6.3735294E-1,-3.5533786E0,4.512726E0,-2.3666787E0,-3.504144E0,-1.9865172E0,-1.7325294E0,2.9883367E-1,4.1816063E0,5.715654E0,3.712404E0,-2.198267E0,2.394976E0,1.1254822E0,-2.0146587E-1,9.655828E-1,2.6723938E0,4.3726516E0,2.5616689E0,9.6749514E-1,-1.2730808E0,1.2995244E0,-5.280042E0,-1.1100538E1,5.019965E0,4.7738843E0,-1.7196139E0,-2.9776073E0,-7.339114E-1,-2.68464E0,-4.1449156E0,-6.212985E0,-2.9996302E0,-6.392691E0],"split_indices":[1,3,13,0,8,69,69,2,0,12,69,0,85,41,8,38,41,73,0,0,2,22,22,75,0,79,66,38,7,14,84,35,69,38,8,10,10,75,17,38,69,6,37,10,10,70,37,18,75,61,77,78,4,54,0,73,34,45,8,0,0,0,0,0,0,0,0,0,0,0,0,0,0,0,0,0,0,0,0,0,0,0,0,0,0,0,0,0,0,0,0,0,0,0,0,0,0,0,0,0,0,0,0,0,0,0,0,0,0,0,0,0,0],"split_type":[0,0,0,0,0,0,0,0,0,0,0,0,0,0,0,0,0,0,0,0,0,0,0,0,0,0,0,0,0,0,0,0,0,0,0,0,0,0,0,0,0,0,0,0,0,0,0,0,0,0,0,0,0,0,0,0,0,0,0,0,0,0,0,0,0,0,0,0,0,0,0,0,0,0,0,0,0,0,0,0,0,0,0,0,0,0,0,0,0,0,0,0,0,0,0,0,0,0,0,0,0,0,0,0,0,0,0,0,0,0,0,0,0],"sum_hessian":[4.36416E5,3.54505E5,8.1911E4,7.2405E4,2.821E5,6.2405E4,1.9506E4,7.1082E4,1.323E3,2.04657E5,7.7443E4,4.8267E4,1.4138E4,1.3098E4,6.408E3,3.188E3,6.7894E4,1.274E3,4.9E1,1.60733E5,4.3924E4,1.3846E4,6.3597E4,4.7959E4,3.08E2,8.234E3,5.904E3,1.0982E4,2.116E3,5.357E3,1.051E3,2.826E3,3.62E2,6.2989E4,4.905E3,6.01E2,6.73E2,1.59796E5,9.37E2,2.597E3,4.1327E4,7.935E3,5.911E3,4.463E4,1.8967E4,3.3022E4,1.4937E4,3.064E3,5.17E3,3.353E3,2.551E3,1.0598E4,3.84E2,2.1E3,1.6E1,3.385E3,1.972E3,6.71E2,3.8E2,2.049E3,7.77E2,4.3E1,3.19E2,6.2034E4,9.55E2,3.813E3,1.092E3,4.85E2,1.16E2,1.51E2,5.22E2,8.8902E4,7.0894E4,2.82E2,6.55E2,2.099E3,4.98E2,8.31E2,4.0496E4,6.97E3,9.65E2,5.396E3,5.15E2,2.1697E4,2.2933E4,1.1901E4,7.066E3,1.4088E4,1.8934E4,1.4727E4,2.1E2,1.669E3,1.395E3,1.048E3,4.122E3,7.73E2,2.58E3,1.503E3,1.048E3,2E3,8.598E3,2.57E2,1.27E2,1.486E3,6.14E2,4.43E2,2.942E3,1.627E3,3.45E2,2.4E2,4.31E2,3.62E2,1.8E1],"tree_param":{"num_deleted":"0","num_feature":"87","num_nodes":"113","size_leaf_vector":"1"}},{"base_weights":[-1.6007827E-5,-1.663002E0,7.1972017E0,-8.059271E0,-2.1285286E-2,9.456349E0,-3.053866E-2,-8.567178E0,1.9215338E1,1.3940443E0,-3.761517E0,1.1039371E1,4.743101E0,2.9035647E0,-6.0273848E0,-2.5108881E1,-7.790095E0,1.8169624E1,1.3649027E1,2.498716E0,-2.6482935E0,2.571021E0,-5.140222E0,-6.805103E0,1.1172283E1,1.5732605E0,6.550701E0,1.2400792E0,1.1532358E1,-5.075056E0,-1.0872015E1,-2.3745722E1,-3.964046E1,-6.165263E0,-1.2016416E1,1.825889E1,-7.7297306E0,2.3666708E0,2.499116E1,-1.0618991E1,-2.147168E0,-2.3160894E0,9.130821E0,-4.6000733E0,-1.3146423E1,6.293052E-1,-1.13378315E1,9.95E0,1.285393E1,2.1145117E0,-5.761116E0,5.954747E0,1.5504361E1,1.8992466E0,-1.6909937E1,1.1555411E1,2.4014673E0,-6.566286E0,-2.5132823E0,-8.021145E0,-1.3489325E1,-7.8116264E0,-4.4076867E0,-1.1597985E1,-1.7817238E1,-1.225455E0,-3.2661035E0,-4.98738E0,-1.7337086E0,5.6144857E0,3.2173603E0,7.731766E-1,-3.2847E0,7.5233226E0,2.2086751E0,-4.01044E0,-2.6500523E0,-6.017292E-1,-4.031438E0,-5.180407E-1,-5.617884E0,4.204851E0,1.1969192E0,-1.7656294E0,-4.6547952E-1,-3.837846E0,-6.6734295E0,2.0906339E0,-2.1058263E-1,-3.248792E0,-4.8905225E0,2.95499E0,9.0385475E0,5.02172E0,3.2081532E0,6.977489E-1,-3.9864686E0,-3.3012967E0,2.819537E-1,1.7354941E0,7.911211E0,4.345954E0,7.496631E0,7.7275497E-1,-4.0098405E0,-7.306621E0,-3.3283734E0,3.4808033E0,2.9526687E0,-1.8627552E0,-3.2779777E0,-3.8714078E-1,-2.020089E0,-5.117794E0,-2.0370073E0,-6.789945E0,-3.7075489E0],"categories":[],"categories_nodes":[],"categories_segments":[],"categories_sizes":[],"default_left":[0,0,0,0,0,0,0,0,0,0,0,0,0,0,0,0,0,0,0,0,0,0,0,0,0,0,0,0,0,0,0,0,0,0,0,0,0,0,0,0,0,0,0,0,0,0,0,0,0,0,0,0,0,0,0,0,0,0,0,0,0,0,0,0,0,0,0,0,0,0,0,0,0,0,0,0,0,0,0,0,0,0,0,0,0,0,0,0,0,0,0,0,0,0,0,0,0,0,0,0,0,0,0,0,0,0,0,0,0,0,0,0,0,0,0,0,0],"id":1,"left_children":[1,3,5,7,9,11,13,15,17,19,21,23,25,27,29,31,33,35,-1,37,39,41,43,45,47,49,51,53,55,57,59,61,63,65,67,69,-1,71,73,75,77,79,81,83,85,87,89,91,93,95,97,99,101,103,105,107,-1,109,111,113,115,-1,-1,-1,-1,-1,-1,-1,-1,-1,-1,-1,-1,-1,-1,-1,-1,-1,-1,-1,-1,-1,-1,-1,-1,-1,-1,-1,-1,-1,-1,-1,-1,-1,-1,-1,-1,-1,-1,-1,-1,-1,-1,-1,-1,-1,-1,-1,-1,-1,-1,-1,-1,-1,-1,-1,-1],"loss_changes":[5.2234315E6,3.722619E6,1.3375025E6,1.003201E6,1.4933524E6,4.655695E5,3.432503E5,9.135255E5,3.5560688E4,9.138979E5,6.7615375E5,1.10872E5,8.990175E4,1.880071E5,2.9513906E4,6.2229125E4,4.6616475E5,5.4709375E3,0E0,4.7732344E5,1.7542775E5,4.4393475E5,2.749715E5,1.1666699E4,9.51835E4,2.26397E4,5.323E4,1.3143162E5,7.96875E1,2.0452094E4,7.741414E3,6.0194625E4,2.971375E3,4.81714E5,5.41796E5,4.1735E3,0E0,4.4811044E5,1.247125E3,1.26343125E4,6.595675E4,7.67113E4,1.4843E5,2.3344812E5,1.26454375E4,1.1188933E3,3.6618164E2,5.3915E4,1.63587E5,1.7311031E4,1.3783073E4,3.2326906E4,5.65225E3,1.09507305E5,1.6399531E4,5.59375E1,0E0,5.2044062E3,1.0173362E4,5.514465E3,5.3763125E3,0E0,0E0,0E0,0E0,0E0,0E0,0E0,0E0,0E0,0E0,0E0,0E0,0E0,0E0,0E0,0E0,0E0,0E0,0E0,0E0,0E0,0E0,0E0,0E0,0E0,0E0,0E0,0E0,0E0,0E0,0E0,0E0,0E0,0E0,0E0,0E0,0E0,0E0,0E0,0E0,0E0,0E0,0E0,0E0,0E0,0E0,0E0,0E0,0E0,0E0,0E0,0E0,0E0,0E0,0E0,0E0],"parents":[2147483647,0,0,1,1,2,2,3,3,4,4,5,5,6,6,7,7,8,8,9,9,10,10,11,11,12,12,13,13,14,14,15,15,16,16,17,17,19,19,20,20,21,21,22,22,23,23,24,24,25,25,26,26,27,27,28,28,29,29,30,30,31,31,32,32,33,33,34,34,35,35,37,37,38,38,39,39,40,40,41,41,42,42,43,43,44,44,45,45,46,46,47,47,48,48,49,49,50,50,51,51,52,52,53,53,54,54,55,55,57,57,58,58,59,59,60,60],"right_children":[2,4,6,8,10,12,14,16,18,20,22,24,26,28,30,32,34,36,-1,38,40,42,44,46,48,50,52,54,56,58,60,62,64,66,68,70,-1,72,74,76,78,80,82,84,86,88,90,92,94,96,98,100,102,104,106,108,-1,110,112,114,116,-1,-1,-1,-1,-1,-1,-1,-1,-1,-1,-1,-1,-1,-1,-1,-1,-1,-1,-1,-1,-1,-1,-1,-1,-1,-1,-1,-1,-1,-1,-1,-1,-1,-1,-1,-1,-1,-1,-1,-1,-1,-1,-1,-1,-1,-1,-1,-1,-1,-1,-1,-1,-1,-1,-1,-1],"split_conditions":[1E0,1E0,1E0,1E0,1E0,1E1,9E0,1E0,2E0,1E0,6E0,2E0,1E0,1E0,1E0,2E0,1E0,1E0,1.3649027E1,1E0,1E0,1E0,1E0,1E0,1E0,2E0,2E0,1E0,1E0,1E0,9E0,1E0,1E0,1E0,1E0,1E0,-7.7297306E0,1E0,1E0,1E0,1E0,1E0,4E0,1E0,2E0,3E0,4E0,1E0,1E0,1E0,1E0,1E0,3E0,1E0,6E0,1E0,2.4014673E0,2.9E1,1E1,5E0,1E0,-7.8116264E0,-4.4076867E0,-1.1597985E1,-1.7817238E1,-1.225455E0,-3.2661035E0,-4.98738E0,-1.7337086E0,5.6144857E0,3.2173603E0,7.731766E-1,-3.2847E0,7.5233226E0,2.2086751E0,-4.01044E0,-2.6500523E0,-6.017292E-1,-4.031438E0,-5.180407E-1,-5.617884E0,4.204851E0,1.1969192E0,-1.7656294E0,-4.6547952E-1,-3.837846E0,-6.6734295E0,2.0906339E0,-2.1058263E-1,-3.248792E0,-4.8905225E0,2.95499E0,9.0385475E0,5.02172E0,3.2081532E0,6.977489E-1,-3.9864686E0,-3.3012967E0,2.819537E-1,1.7354941E0,7.911211E0,4.345954E0,7.496631E0,7.7275497E-1,-4.0098405E0,-7.306621E0,-3.3283734E0,3.4808033E0,2.9526687E0,-1.8627552E0,-3.2779777E0,-3.8714078E-1,-2.020089E0,-5.117794E0,-2.0370073E0,-6.789945E0,-3.7075489E0],"split_indices":[1,3,13,0,8,75,69,2,0,12,69,70,84,41,8,6,8,13,0,0,2,22,34,7,61,8,1,38,7,14,73,22,63,34,22,8,0,11,21,10,7,12,70,22,84,76,78,0,66,7,22,0,85,37,69,22,0,75,75,75,77,0,0,0,0,0,0,0,0,0,0,0,0,0,0,0,0,0,0,0,0,0,0,0,0,0,0,0,0,0,0,0,0,0,0,0,0,0,0,0,0,0,0,0,0,0,0,0,0,0,0,0,0,0,0,0,0],"split_type":[0,0,0,0,0,0,0,0,0,0,0,0,0,0,0,0,0,0,0,0,0,0,0,0,0,0,0,0,0,0,0,0,0,0,0,0,0,0,0,0,0,0,0,0,0,0,0,0,0,0,0,0,0,0,0,0,0,0,0,0,0,0,0,0,0,0,0,0,0,0,0,0,0,0,0,0,0,0,0,0,0,0,0,0,0,0,0,0,0,0,0,0,0,0,0,0,0,0,0,0,0,0,0,0,0,0,0,0,0,0,0,0,0,0,0,0,0],"sum_hessian":[4.36416E5,3.54505E5,8.1911E4,7.2405E4,2.821E5,6.2405E4,1.9506E4,7.1082E4,1.323E3,2.04657E5,7.7443E4,4.6714E4,1.5691E4,1.3098E4,6.408E3,3.188E3,6.7894E4,1.274E3,4.9E1,1.60733E5,4.3924E4,1.3846E4,6.3597E4,3.45E2,4.6369E4,5.699E3,9.992E3,1.0982E4,2.116E3,5.357E3,1.051E3,2.917E3,2.71E2,4.9042E4,1.8852E4,1.272E3,2E0,1.59796E5,9.37E2,2.597E3,4.1327E4,7.935E3,5.911E3,5.9579E4,4.018E3,1.31E2,2.14E2,2.6856E4,1.9513E4,5.308E3,3.91E2,9.37E3,6.22E2,1.0598E4,3.84E2,2.1E3,1.6E1,3.385E3,1.972E3,5.05E2,5.46E2,2.326E3,5.91E2,2.61E2,1E1,3.4044E4,1.4998E4,1.0841E4,8.011E3,1.198E3,7.4E1,1.57309E5,2.487E3,9.32E2,5E0,1.02E3,1.577E3,4.0817E4,5.1E2,7.661E3,2.74E2,3.03E3,2.881E3,4.1908E4,1.7671E4,3.87E3,1.48E2,2.2E1,1.09E2,1.97E2,1.7E1,2.6725E4,1.31E2,6.97E3,1.2543E4,5.237E3,7.1E1,2.19E2,1.72E2,9.294E3,7.6E1,5.64E2,5.8E1,1.0149E4,4.49E2,1.67E2,2.17E2,2.038E3,6.2E1,3.131E3,2.54E2,1.53E3,4.42E2,5.9E1,4.46E2,5.8E1,4.88E2],"tree_param":{"num_deleted":"0","num_feature":"87","num_nodes":"117","size_leaf_vector":"1"}},{"base_weights":[-1.4110768E-4,-1.1642584E0,5.0380282E0,-5.6420145E0,-1.4962218E-2,6.6199126E0,-2.292921E-2,-5.9977665E0,1.3461877E1,9.7581017E-1,-2.6332345E0,8.255973E0,4.1820726E0,2.0321078E0,-4.223102E0,-1.9926964E1,-5.5346346E0,1.27196E1,3.212071E1,1.7491446E0,-1.8540614E0,3.5721403E-1,-4.070944E0,7.529916E0,1.0992565E1,2.7432592E0,6.1073484E0,8.6678916E-1,8.076823E0,-3.5539489E0,-7.6271887E0,-1.8241428E1,-2.886907E1,-6.0788283E0,1.5536574E0,1.0867193E1,1.4355252E1,9.915623E0,3.9440978E0,2.5391955E0,-1.458619E0,-7.4358563E0,-1.5031284E0,6.020897E0,-1.3960037E0,-2.540335E0,-5.772651E0,-4.781662E0,7.6756864E0,8.126847E0,1.3093561E1,4.549319E0,1.4212835E-1,5.8079424E0,2.3805277E1,1.2961555E0,-1.630469E1,8.237227E0,7.671678E0,-4.5979185E0,-1.7605196E0,-6.1400084E0,-1.0554665E1,-5.029514E0,-8.219244E0,-9.343051E0,-7.9459796E0,-1.7572151E0,-6.1860347E0,8.474111E-1,-8.6491555E-1,2.9116788E0,4.679822E0,4.697592E0,3.2073562E0,2.4310637E0,6.3979405E-1,-4.1934E0,-3.626845E-1,-2.6116838E0,-1.3112124E0,2.0870154E0,-5.03069E-1,2.057239E0,-3.434757E0,-2.8195652E-1,-2.5548012E0,-9.359716E-1,8.461838E-1,-2.71052E0,-1.1675012E0,1.3642584E-1,-2.392301E0,2.7662954E0,1.9543538E0,2.121426E0,3.1019356E0,4.360963E0,3.8501732E0,1.7081712E0,8.5381913E-1,2.352419E-1,-1.4994338E0,1.5490724E0,3.674678E0,8.258963E0,5.568671E0,-2.3871826E-1,1.5153831E0,-7.3283963E0,-4.227732E0,2.2701046E0,2.539099E0,2.340987E0,2.092171E0,-1.325285E0,-3.6866615E0,-1.1494522E0,5.8840034E-3,-3.6080456E0,-1.6738206E0,-3.0580392E0,-1.0096684E1],"categories":[],"categories_nodes":[],"categories_segments":[],"categories_sizes":[],"default_left":[0,0,0,0,0,0,0,0,0,0,0,0,0,0,0,0,0,0,0,0,0,0,0,0,0,0,0,0,0,0,0,0,0,0,0,0,0,0,0,0,0,0,0,0,0,0,0,0,0,0,0,0,0,0,0,0,0,0,0,0,0,0,0,0,0,0,0,0,0,0,0,0,0,0,0,0,0,0,0,0,0,0,0,0,0,0,0,0,0,0,0,0,0,0,0,0,0,0,0,0,0,0,0,0,0,0,0,0,0,0,0,0,0,0,0,0,0,0,0,0,0,0,0],"id":2,"left_children":[1,3,5,7,9,11,13,15,17,19,21,23,25,27,29,31,33,35,37,39,41,43,45,47,49,51,53,55,57,59,61,63,65,67,69,71,73,-1,-1,75,77,79,81,83,85,87,89,91,93,95,97,99,101,103,105,107,109,111,113,115,117,119,121,-1,-1,-1,-1,-1,-1,-1,-1,-1,-1,-1,-1,-1,-1,-1,-1,-1,-1,-1,-1,-1,-1,-1,-1,-1,-1,-1,-1,-1,-1,-1,-1,-1,-1,-1,-1,-1,-1,-1,-1,-1,-1,-1,-1,-1,-1,-1,-1,-1,-1,-1,-1,-1,-1,-1,-1,-1,-1,-1,-1],"loss_changes":[2.5596002E6,1.8243828E6,6.5577525E5,4.9216975E5,7.318042E5,2.4886875E5,1.6838345E5,4.5844975E5,1.7928875E4,4.4788438E5,3.3296394E5,7.4115E4,6.941331E4,9.226261E4,1.4571672E4,3.3943625E4,2.6538725E5,3.7071094E3,4.4903906E2,4.0735128E5,8.603067E4,2.4968995E5,1.3620844E5,5.3008125E4,4.7024812E4,6.7393945E4,5.666028E4,8.09972E4,7.4375E1,1.0023617E4,4.5152656E3,2.55895E4,1.1313125E3,2.056175E5,2.7674355E4,3.15775E3,3.0514219E3,0E0,0E0,2.9173594E5,9.9271664E4,1.0073359E4,6.076597E4,8.694944E4,6.2355844E4,8.556444E4,1.5193625E5,5.7881133E3,5.2283125E4,7.667047E3,1.505125E3,1.649039E4,1.9408463E4,4.3689906E4,2.9650078E3,8.418114E4,4.4719062E3,1.6405469E2,2.0585938E0,4.6410625E3,7.273803E3,2.2430254E3,2.6024023E3,0E0,0E0,0E0,0E0,0E0,0E0,0E0,0E0,0E0,0E0,0E0,0E0,0E0,0E0,0E0,0E0,0E0,0E0,0E0,0E0,0E0,0E0,0E0,0E0,0E0,0E0,0E0,0E0,0E0,0E0,0E0,0E0,0E0,0E0,0E0,0E0,0E0,0E0,0E0,0E0,0E0,0E0,0E0,0E0,0E0,0E0,0E0,0E0,0E0,0E0,0E0,0E0,0E0,0E0,0E0,0E0,0E0,0E0,0E0,0E0],"parents":[2147483647,0,0,1,1,2,2,3,3,4,4,5,5,6,6,7,7,8,8,9,9,10,10,11,11,12,12,13,13,14,14,15,15,16,16,17,17,18,18,19,19,20,20,21,21,22,22,23,23,24,24,25,25,26,26,27,27,28,28,29,29,30,30,31,31,32,32,33,33,34,34,35,35,36,36,39,39,40,40,41,41,42,42,43,43,44,44,45,45,46,46,47,47,48,48,49,49,50,50,51,51,52,52,53,53,54,54,55,55,56,56,57,57,58,58,59,59,60,60,61,61,62,62],"right_children":[2,4,6,8,10,12,14,16,18,20,22,24,26,28,30,32,34,36,38,40,42,44,46,48,50,52,54,56,58,60,62,64,66,68,70,72,74,-1,-1,76,78,80,82,84,86,88,90,92,94,96,98,100,102,104,106,108,110,112,114,116,118,120,122,-1,-1,-1,-1,-1,-1,-1,-1,-1,-1,-1,-1,-1,-1,-1,-1,-1,-1,-1,-1,-1,-1,-1,-1,-1,-1,-1,-1,-1,-1,-1,-1,-1,-1,-1,-1,-1,-1,-1,-1,-1,-1,-1,-1,-1,-1,-1,-1,-1,-1,-1,-1,-1,-1,-1,-1,-1,-1,-1,-1],"split_conditions":[1E0,1E0,1E0,1E0,1E0,6E0,9E0,6E0,2E0,1E0,1E0,8E0,2E0,1E0,1E0,1E0,1E0,1E1,1E0,1E0,1E0,6E0,1E0,2E0,2E0,1E0,1E0,2E0,3E0,1E0,1.3E1,2E0,2E0,1E0,1E0,3E0,1.3E1,9.915623E0,3.9440978E0,2E0,1E0,1E0,6E0,1E0,1E0,1E0,1E0,1E0,6E0,1.1E1,1E0,1E0,2E0,2E0,1E1,2E0,1E0,1E0,1E0,1E0,1.1E1,5E0,1E0,-5.029514E0,-8.219244E0,-9.343051E0,-7.9459796E0,-1.7572151E0,-6.1860347E0,8.474111E-1,-8.6491555E-1,2.9116788E0,4.679822E0,4.697592E0,3.2073562E0,2.4310637E0,6.3979405E-1,-4.1934E0,-3.626845E-1,-2.6116838E0,-1.3112124E0,2.0870154E0,-5.03069E-1,2.057239E0,-3.434757E0,-2.8195652E-1,-2.5548012E0,-9.359716E-1,8.461838E-1,-2.71052E0,-1.1675012E0,1.3642584E-1,-2.392301E0,2.7662954E0,1.9543538E0,2.121426E0,3.1019356E0,4.360963E0,3.8501732E0,1.7081712E0,8.5381913E-1,2.352419E-1,-1.4994338E0,1.5490724E0,3.674678E0,8.258963E0,5.568671E0,-2.3871826E-1,1.5153831E0,-7.3283963E0,-4.227732E0,2.2701046E0,2.539099E0,2.340987E0,2.092171E0,-1.325285E0,-3.6866615E0,-1.1494522E0,5.8840034E-3,-3.6080456E0,-1.6738206E0,-3.0580392E0,-1.0096684E1],"split_indices":[1,3,13,0,8,75,69,69,0,12,16,70,84,41,8,38,41,73,21,14,2,69,75,70,84,77,0,13,54,14,75,6,9,38,8,10,75,0,0,69,2,31,69,37,34,22,9,7,73,70,16,2,8,1,75,35,77,27,16,7,73,75,11,0,0,0,0,0,0,0,0,0,0,0,0,0,0,0,0,0,0,0,0,0,0,0,0,0,0,0,0,0,0,0,0,0,0,0,0,0,0,0,0,0,0,0,0,0,0,0,0,0,0,0,0,0,0,0,0,0,0,0,0],"split_type":[0,0,0,0,0,0,0,0,0,0,0,0,0,0,0,0,0,0,0,0,0,0,0,0,0,0,0,0,0,0,0,0,0,0,0,0,0,0,0,0,0,0,0,0,0,0,0,0,0,0,0,0,0,0,0,0,0,0,0,0,0,0,0,0,0,0,0,0,0,0,0,0,0,0,0,0,0,0,0,0,0,0,0,0,0,0,0,0,0,0,0,0,0,0,0,0,0,0,0,0,0,0,0,0,0,0,0,0,0,0,0,0,0,0,0,0,0,0,0,0,0,0,0],"sum_hessian":[4.36416E5,3.54505E5,8.1911E4,7.2405E4,2.821E5,6.2405E4,1.9506E4,7.1082E4,1.323E3,2.04657E5,7.7443E4,3.7342E4,2.5063E4,1.3098E4,6.408E3,2.286E3,6.8796E4,1.274E3,4.9E1,1.60733E5,4.3924E4,2.5144E4,5.2299E4,2.9515E4,7.827E3,1.4345E4,1.0718E4,1.0982E4,2.116E3,5.357E3,1.051E3,1.926E3,3.6E2,6.3891E4,4.905E3,6.01E2,6.73E2,4.6E1,3E0,1.28969E5,3.1764E4,2.597E3,4.1327E4,5.943E3,1.9201E4,2.7535E4,2.4764E4,3.45E2,2.917E4,3.313E3,4.514E3,8.466E3,5.879E3,1.0541E4,1.77E2,1.0715E4,2.67E2,1.502E3,6.14E2,3.385E3,1.972E3,6.99E2,3.52E2,1.661E3,2.65E2,1.78E2,1.82E2,6.2934E4,9.57E2,3.813E3,1.092E3,4.85E2,1.16E2,4.94E2,1.79E2,8.78E3,1.20189E5,6.2E2,3.1144E4,1.835E3,7.62E2,8.31E2,4.0496E4,5.672E3,2.71E2,1.8046E4,1.155E3,2.4849E4,2.686E3,9.055E3,1.5709E4,1.31E2,2.14E2,1.2512E4,1.6658E4,2.246E3,1.067E3,6.8E2,3.834E3,5.062E3,3.404E3,5.227E3,6.52E2,9.584E3,9.57E2,1.01E2,7.6E1,6.882E3,3.833E3,5.5E1,2.12E2,3.88E2,1.114E3,5.08E2,1.06E2,3.309E3,7.6E1,9.11E2,1.061E3,5.9E1,6.4E2,3.48E2,4E0],"tree_param":{"num_deleted":"0","num_feature":"87","num_nodes":"123","size_leaf_vector":"1"}},{"base_weights":[-1.2211347E-4,-8.1503946E-1,3.5267494E0,1.1777709E0,-2.2815762E0,4.6345196E0,-1.736435E-2,-5.905131E-1,2.8932571E0,-5.924181E0,-1.6645652E0,5.393935E0,1.9884533E0,1.4223956E0,-2.9600072E0,-7.9161525E-1,1.5075717E1,5.556296E0,2.5793881E0,-6.2429543E0,8.927255E0,-7.695634E-1,-4.0967546E0,5.4545403E0,-1.6516655E1,8.459385E-1,3.560754E0,1.8173645E0,-1.162553E1,2.6769676E0,-3.29001E0,-1.4169717E0,3.010037E0,1.3140529E1,4.7662745E0,5.609E0,-4.3783545E0,2.7405605E0,-2.9244597E0,-8.012003E0,-4.021685E0,7.704481E0,2.2761696E1,-1.5521652E0,6.954972E-1,-3.1305108E0,-7.200827E0,4.8895836E0,7.524305E0,-1.496734E1,-8.102217E0,1.0752558E0,-7.8181624E0,5.430715E0,1.101283E0,-3.5340593E0,2.819525E0,-8.306489E0,-1.8224648E1,-4.1292286E0,3.0103846E0,-2.3196993E0,-4.5209403E0,-3.7211853E-1,-3.056753E0,2.410882E0,2.7495253E-1,3.7282975E0,5.019079E0,1.6915768E0,-3.5017002E0,-2.1305552E0,3.1928234E0,8.4523374E-1,-2.481103E0,-3.9898689E0,-8.461449E-1,-4.2483344E0,-2.0674038E0,-4.3311536E-2,-2.070528E0,2.354989E0,-6.7661214E0,7.0042286E0,3.056677E0,-4.408396E-1,-4.402586E0,2.0212513E-1,2.364795E0,-8.055821E-1,-5.585451E0,-2.9217064E0,-1.2879416E0,1.4391185E0,5.213452E0,2.4394498E0,1.6519135E0,-4.590341E0,9.1194004E-1,9.3233526E-2,9.10194E-1,-1.6291546E0,-3.7648077E0,1.4048449E0,2.158968E0,7.812318E-1,-3.2954136E-1,9.4281055E-2,-1.4174807E0,9.9988973E-1,-2.7774203E0,-3.152589E0,-1.7059366E0,-6.779954E0,-3.8174522E0,-1.3311857E0,1.19952396E-1,9.687399E-1,5.614512E-1,-9.904866E-1,3.912792E-1,-2.3677824E0,-1.0063659E0],"categories":[],"categories_nodes":[],"categories_segments":[],"categories_sizes":[],"default_left":[0,0,0,0,0,0,0,0,0,0,0,0,0,0,0,0,0,0,0,0,0,0,0,0,0,0,0,0,0,0,0,0,0,0,0,0,0,0,0,0,0,0,0,0,0,0,0,0,0,0,0,0,0,0,0,0,0,0,0,0,0,0,0,0,0,0,0,0,0,0,0,0,0,0,0,0,0,0,0,0,0,0,0,0,0,0,0,0,0,0,0,0,0,0,0,0,0,0,0,0,0,0,0,0,0,0,0,0,0,0,0,0,0,0,0,0,0,0,0,0,0,0,0],"id":3,"left_children":[1,3,5,7,9,11,13,15,17,19,21,23,25,27,29,31,33,35,37,39,41,43,45,47,49,51,53,55,57,59,61,63,65,67,-1,69,71,73,75,77,79,81,83,85,87,89,91,93,95,97,-1,99,101,103,105,107,109,111,113,115,117,119,121,-1,-1,-1,-1,-1,-1,-1,-1,-1,-1,-1,-1,-1,-1,-1,-1,-1,-1,-1,-1,-1,-1,-1,-1,-1,-1,-1,-1,-1,-1,-1,-1,-1,-1,-1,-1,-1,-1,-1,-1,-1,-1,-1,-1,-1,-1,-1,-1,-1,-1,-1,-1,-1,-1,-1,-1,-1,-1,-1,-1],"loss_changes":[1.2543128E6,1.03605694E6,3.215918E5,4.558953E5,4.5897775E5,1.25391875E5,8.264951E4,2.3316877E5,6.37465E4,1.4009938E5,3.8015347E5,6.4478375E4,2.4998965E4,6.752714E4,1.1930934E4,1.737176E5,1.2649219E3,4.235328E3,6.0543375E4,1.13767E5,1.0346625E4,1.4637423E5,1.4087506E5,5.650725E4,1.7737305E3,1.6026213E4,2.693104E4,6.820033E4,8.281168E3,8.180325E2,7.2215156E3,9.71819E4,1.08606586E5,5.1628125E2,0E0,4.156547E3,1.8347085E3,5.6152125E4,2.057461E3,1.1098606E5,1.4339384E5,2.6994062E3,1.3032812E2,9.028783E4,6.9422656E3,2.470016E5,8.225569E4,4.3813062E4,1.26576875E4,7.6178516E2,0E0,1.1761134E4,2.2815078E3,4.3601875E3,8.369945E3,9.194752E3,6.644492E4,1.4288242E3,2.7924531E3,2.5492798E1,7.841113E1,1.206034E4,1.0465883E4,0E0,0E0,0E0,0E0,0E0,0E0,0E0,0E0,0E0,0E0,0E0,0E0,0E0,0E0,0E0,0E0,0E0,0E0,0E0,0E0,0E0,0E0,0E0,0E0,0E0,0E0,0E0,0E0,0E0,0E0,0E0,0E0,0E0,0E0,0E0,0E0,0E0,0E0,0E0,0E0,0E0,0E0,0E0,0E0,0E0,0E0,0E0,0E0,0E0,0E0,0E0,0E0,0E0,0E0,0E0,0E0,0E0,0E0,0E0,0E0],"parents":[2147483647,0,0,1,1,2,2,3,3,4,4,5,5,6,6,7,7,8,8,9,9,10,10,11,11,12,12,13,13,14,14,15,15,16,16,17,17,18,18,19,19,20,20,21,21,22,22,23,23,24,24,25,25,26,26,27,27,28,28,29,29,30,30,31,31,32,32,33,33,35,35,36,36,37,37,38,38,39,39,40,40,41,41,42,42,43,43,44,44,45,45,46,46,47,47,48,48,49,49,51,51,52,52,53,53,54,54,55,55,56,56,57,57,58,58,59,59,60,60,61,61,62,62],"right_children":[2,4,6,8,10,12,14,16,18,20,22,24,26,28,30,32,34,36,38,40,42,44,46,48,50,52,54,56,58,60,62,64,66,68,-1,70,72,74,76,78,80,82,84,86,88,90,92,94,96,98,-1,100,102,104,106,108,110,112,114,116,118,120,122,-1,-1,-1,-1,-1,-1,-1,-1,-1,-1,-1,-1,-1,-1,-1,-1,-1,-1,-1,-1,-1,-1,-1,-1,-1,-1,-1,-1,-1,-1,-1,-1,-1,-1,-1,-1,-1,-1,-1,-1,-1,-1,-1,-1,-1,-1,-1,-1,-1,-1,-1,-1,-1,-1,-1,-1,-1,-1,-1,-1],"split_conditions":[1E0,1E0,1E0,1E0,1E0,9E0,9E0,1E0,5E0,1E0,1E1,1E0,2E0,1E0,3E0,1E0,1E0,4E0,1E0,1E0,2E0,1.8E1,1E0,1E0,1E0,1E0,1E0,1E0,1E0,1E0,1E1,1E0,5E0,1E0,4.7662745E0,1E0,1E0,1E0,1E0,5E0,1E0,1E0,1E0,1E0,1.6E1,1E0,1E0,1E0,1E0,2E0,-8.102217E0,1E0,1E0,1E0,1E0,1E0,1E0,1E0,1E0,1E0,1.6E1,7E0,1.3E1,-3.7211853E-1,-3.056753E0,2.410882E0,2.7495253E-1,3.7282975E0,5.019079E0,1.6915768E0,-3.5017002E0,-2.1305552E0,3.1928234E0,8.4523374E-1,-2.481103E0,-3.9898689E0,-8.461449E-1,-4.2483344E0,-2.0674038E0,-4.3311536E-2,-2.070528E0,2.354989E0,-6.7661214E0,7.0042286E0,3.056677E0,-4.408396E-1,-4.402586E0,2.0212513E-1,2.364795E0,-8.055821E-1,-5.585451E0,-2.9217064E0,-1.2879416E0,1.4391185E0,5.213452E0,2.4394498E0,1.6519135E0,-4.590341E0,9.1194004E-1,9.3233526E-2,9.10194E-1,-1.6291546E0,-3.7648077E0,1.4048449E0,2.158968E0,7.812318E-1,-3.2954136E-1,9.4281055E-2,-1.4174807E0,9.9988973E-1,-2.7774203E0,-3.152589E0,-1.7059366E0,-6.779954E0,-3.8174522E0,-1.3311857E0,1.19952396E-1,9.687399E-1,5.614512E-1,-9.904866E-1,3.912792E-1,-2.3677824E0,-1.0063659E0],"split_indices":[1,75,13,9,9,69,69,0,73,0,75,38,85,38,73,22,17,42,14,44,0,73,8,44,6,7,66,78,4,14,75,38,73,31,0,5,2,11,2,73,33,13,21,38,70,37,22,0,9,31,0,44,16,20,77,33,37,39,21,31,80,70,73,0,0,0,0,0,0,0,0,0,0,0,0,0,0,0,0,0,0,0,0,0,0,0,0,0,0,0,0,0,0,0,0,0,0,0,0,0,0,0,0,0,0,0,0,0,0,0,0,0,0,0,0,0,0,0,0,0,0,0,0],"split_type":[0,0,0,0,0,0,0,0,0,0,0,0,0,0,0,0,0,0,0,0,0,0,0,0,0,0,0,0,0,0,0,0,0,0,0,0,0,0,0,0,0,0,0,0,0,0,0,0,0,0,0,0,0,0,0,0,0,0,0,0,0,0,0,0,0,0,0,0,0,0,0,0,0,0,0,0,0,0,0,0,0,0,0,0,0,0,0,0,0,0,0,0,0,0,0,0,0,0,0,0,0,0,0,0,0,0,0,0,0,0,0,0,0,0,0,0,0,0,0,0,0,0,0],"sum_hessian":[4.36416E5,3.54505E5,8.1911E4,1.50287E5,2.04218E5,6.2405E4,1.9506E4,7.4005E4,7.6282E4,2.958E4,1.74638E5,4.8488E4,1.3917E4,1.3098E4,6.408E3,7.3068E4,9.37E2,8.041E3,6.8241E4,2.8959E4,6.21E2,1.27662E5,4.6976E4,4.8355E4,1.33E2,8.061E3,5.856E3,1.2714E4,3.84E2,3.54E2,6.054E3,6.2747E4,1.0321E4,2.82E2,6.55E2,7.999E3,4.2E1,6.63E4,1.941E3,1.6119E4,1.284E4,5.72E2,4.9E1,8.3212E4,4.445E4,3.5826E4,1.115E4,3.7989E4,1.0366E4,1.18E2,1.5E1,7.854E3,2.07E2,3.326E3,2.53E3,2.005E3,1.0709E4,2.57E2,1.27E2,1.6E1,3.38E2,3.387E3,2.667E3,6.151E4,1.237E3,3.034E3,7.287E3,2.39E2,4.3E1,7.986E3,1.3E1,3.6E1,6E0,6.5841E4,4.59E2,1.8E1,1.923E3,2.483E3,1.3636E4,5.473E3,7.367E3,5.7E2,2E0,4.6E1,3E0,8.2692E4,5.2E2,4.4317E4,1.33E2,3.4826E4,1E3,5.952E3,5.198E3,3.7711E4,2.78E2,7.966E3,2.4E3,1.16E2,2E0,5.65E3,2.204E3,1.39E2,6.8E1,2.339E3,9.87E2,1.503E3,1.027E3,4.74E2,1.531E3,1.0273E4,4.36E2,1.38E2,1.19E2,6.9E1,5.8E1,1.5E1,1E0,2.82E2,5.6E1,2.665E3,7.22E2,6.84E2,1.983E3],"tree_param":{"num_deleted":"0","num_feature":"87","num_nodes":"123","size_leaf_vector":"1"}},{"base_weights":[-1.6238117E-4,-5.7055557E-1,2.4684358E0,8.2447714E-1,-1.5971794E0,3.244141E0,-1.3296072E-2,-4.1318884E-1,2.0251887E0,-9.2514145E-1,-3.2720811E0,3.7778509E0,8.4507513E-1,-1.6373241E-1,1.8528786E1,-5.5414313E-1,1.05674095E1,1.9342304E0,7.4924335E0,-4.9432418E-1,-4.8652334E0,-4.90483E0,-7.9325294E-1,3.8901813E0,-5.918789E0,5.055228E-1,1.2984907E1,-7.5642216E-1,4.661573E0,1.9101252E1,3.5328784E0,-9.919371E-1,2.107284E0,9.278706E0,3.3458896E0,2.085477E0,-2.923808E0,8.980641E0,2.5893261E0,-3.8689417E-1,-9.635689E0,-4.069218E0,-1.0913942E1,-7.6607695E0,-3.4594417E0,2.0620653E-1,-6.9730864E0,4.295408E0,2.0472164E0,-8.132643E0,1.2431633E0,-1.0602834E-1,6.9332905E0,1.4557086E1,8.058898E0,-1.2342247E0,6.738825E0,4.697265E0,3.1235843E0,1.6986189E1,6.6599355E0,7.99881E-1,2.0730743E0,-2.4351089E-1,-2.054807E0,1.687856E0,1.9247712E-1,2.84267E0,5.647749E-1,1.1656003E0,5.5860597E-1,-6.5060216E-1,-1.7749218E0,2.8420844E0,2.5824177E0,8.05841E-1,-1.0514466E0,-9.988246E-2,-5.164196E0,-2.6209793E0,-9.011341E0,-1.1579438E0,-5.2632303E0,-4.092308E0,-1.632055E0,-2.495929E0,2.2758E0,-1.097999E0,1.2744486E0,-2.0465167E-1,1.2459551E0,-1.2920933E0,-3.1045527E0,1.5131702E0,9.0988386E-1,1.5733912E0,-1.0174443E-2,-2.1428444E0,-4.3562875E0,-3.5729644E0,5.7782453E-1,-8.5834646E-1,3.266873E-1,2.859947E0,1.1746974E0,3.7642548E0,5.159201E0,6.2233126E-1,2.4572475E0,-4.813511E-1,1.6543195E0,-2.2277074E0,2.4946704E0,1.438967E0,1.2653872E0,9.866324E-1,2.8382403E-1,5.188472E0,1.7149047E0,2.6333487E-1,7.324105E-2],"categories":[],"categories_nodes":[],"categories_segments":[],"categories_sizes":[],"default_left":[0,0,0,0,0,0,0,0,0,0,0,0,0,0,0,0,0,0,0,0,0,0,0,0,0,0,0,0,0,0,0,0,0,0,0,0,0,0,0,0,0,0,0,0,0,0,0,0,0,0,0,0,0,0,0,0,0,0,0,0,0,0,0,0,0,0,0,0,0,0,0,0,0,0,0,0,0,0,0,0,0,0,0,0,0,0,0,0,0,0,0,0,0,0,0,0,0,0,0,0,0,0,0,0,0,0,0,0,0,0,0,0,0,0,0,0,0,0,0,0,0],"id":4,"left_children":[1,3,5,7,9,11,13,15,17,19,21,23,25,27,29,31,33,35,37,39,41,43,45,47,49,51,53,55,57,59,61,63,65,67,-1,69,71,73,75,77,79,81,83,85,87,89,91,93,95,97,99,101,103,105,107,109,111,113,115,117,-1,119,-1,-1,-1,-1,-1,-1,-1,-1,-1,-1,-1,-1,-1,-1,-1,-1,-1,-1,-1,-1,-1,-1,-1,-1,-1,-1,-1,-1,-1,-1,-1,-1,-1,-1,-1,-1,-1,-1,-1,-1,-1,-1,-1,-1,-1,-1,-1,-1,-1,-1,-1,-1,-1,-1,-1,-1,-1,-1,-1],"loss_changes":[6.1450775E5,5.0771556E5,1.5768822E5,2.2334081E5,2.298654E5,7.990175E4,5.441591E4,1.14549555E5,3.7920406E4,2.4739047E5,2.3667025E5,5.5626938E4,4.6812336E4,5.534563E4,1.2803047E3,8.513894E4,6.0433594E2,5.513975E4,9.083203E3,1.2901792E5,6.912116E4,1.4040838E5,1.4343816E5,3.7679375E4,9.285584E3,4.3437277E4,2.2757578E3,6.173113E4,1.0154297E2,6.125078E2,5.9085022E1,6.623797E4,5.323348E4,4.1750586E2,0E0,2.9260625E4,5.1079062E3,9.422656E1,1.8168774E2,1.178843E5,2.7729547E4,3.575675E4,2.4854531E4,1.2191956E5,3.576672E4,7.009948E4,2.9049984E4,3.9075125E4,6.0540566E4,2.7228105E3,1.2715007E3,3.3226098E4,7.494293E3,1.02046094E3,4.3800293E1,4.0498086E4,2.3132562E4,7.813672E1,1.5233368E1,2.2818164E2,0E0,2.168417E-3,0E0,0E0,0E0,0E0,0E0,0E0,0E0,0E0,0E0,0E0,0E0,0E0,0E0,0E0,0E0,0E0,0E0,0E0,0E0,0E0,0E0,0E0,0E0,0E0,0E0,0E0,0E0,0E0,0E0,0E0,0E0,0E0,0E0,0E0,0E0,0E0,0E0,0E0,0E0,0E0,0E0,0E0,0E0,0E0,0E0,0E0,0E0,0E0,0E0,0E0,0E0,0E0,0E0,0E0,0E0,0E0,0E0,0E0,0E0],"parents":[2147483647,0,0,1,1,2,2,3,3,4,4,5,5,6,6,7,7,8,8,9,9,10,10,11,11,12,12,13,13,14,14,15,15,16,16,17,17,18,18,19,19,20,20,21,21,22,22,23,23,24,24,25,25,26,26,27,27,28,28,29,29,30,30,31,31,32,32,33,33,35,35,36,36,37,37,38,38,39,39,40,40,41,41,42,42,43,43,44,44,45,45,46,46,47,47,48,48,49,49,50,50,51,51,52,52,53,53,54,54,55,55,56,56,57,57,58,58,59,59,61,61],"right_children":[2,4,6,8,10,12,14,16,18,20,22,24,26,28,30,32,34,36,38,40,42,44,46,48,50,52,54,56,58,60,62,64,66,68,-1,70,72,74,76,78,80,82,84,86,88,90,92,94,96,98,100,102,104,106,108,110,112,114,116,118,-1,120,-1,-1,-1,-1,-1,-1,-1,-1,-1,-1,-1,-1,-1,-1,-1,-1,-1,-1,-1,-1,-1,-1,-1,-1,-1,-1,-1,-1,-1,-1,-1,-1,-1,-1,-1,-1,-1,-1,-1,-1,-1,-1,-1,-1,-1,-1,-1,-1,-1,-1,-1,-1,-1,-1,-1,-1,-1,-1,-1],"split_conditions":[1E0,1E0,1E0,1E0,1E0,1E0,1E0,1E0,2E0,1E0,1E0,1E0,1E0,1E0,1E0,1E0,6E0,9E0,1E0,1E0,1E0,1E0,1.2E1,1E0,1E0,2E0,1E1,1E0,1.8E1,1E0,1E0,1E0,5E0,1E0,3.3458896E0,5E0,1E0,2E0,1E0,1E0,1E0,1E0,1E0,1E0,1E0,2E0,2.6E1,4E0,6E0,1E0,1E0,1E0,1.5E1,7E0,1E1,2E0,2E0,1E0,1E0,1E0,6.6599355E0,1E0,2.0730743E0,-2.4351089E-1,-2.054807E0,1.687856E0,1.9247712E-1,2.84267E0,5.647749E-1,1.1656003E0,5.5860597E-1,-6.5060216E-1,-1.7749218E0,2.8420844E0,2.5824177E0,8.05841E-1,-1.0514466E0,-9.988246E-2,-5.164196E0,-2.6209793E0,-9.011341E0,-1.1579438E0,-5.2632303E0,-4.092308E0,-1.632055E0,-2.495929E0,2.2758E0,-1.097999E0,1.2744486E0,-2.0465167E-1,1.2459551E0,-1.2920933E0,-3.1045527E0,1.5131702E0,9.0988386E-1,1.5733912E0,-1.0174443E-2,-2.1428444E0,-4.3562875E0,-3.5729644E0,5.7782453E-1,-8.5834646E-1,3.266873E-1,2.859947E0,1.1746974E0,3.7642548E0,5.159201E0,6.2233126E-1,2.4572475E0,-4.813511E-1,1.6543195E0,-2.2277074E0,2.4946704E0,1.438967E0,1.2653872E0,9.866324E-1,2.8382403E-1,5.188472E0,1.7149047E0,2.6333487E-1,7.324105E-2],"split_indices":[1,75,13,9,8,77,0,0,33,5,22,7,0,41,21,22,71,70,8,11,37,3,69,11,19,1,75,61,80,14,14,6,73,43,0,73,11,17,55,38,4,4,3,11,61,34,75,75,73,9,8,9,75,70,70,39,1,84,8,15,0,83,0,0,0,0,0,0,0,0,0,0,0,0,0,0,0,0,0,0,0,0,0,0,0,0,0,0,0,0,0,0,0,0,0,0,0,0,0,0,0,0,0,0,0,0,0,0,0,0,0,0,0,0,0,0,0,0,0,0,0],"split_type":[0,0,0,0,0,0,0,0,0,0,0,0,0,0,0,0,0,0,0,0,0,0,0,0,0,0,0,0,0,0,0,0,0,0,0,0,0,0,0,0,0,0,0,0,0,0,0,0,0,0,0,0,0,0,0,0,0,0,0,0,0,0,0,0,0,0,0,0,0,0,0,0,0,0,0,0,0,0,0,0,0,0,0,0,0,0,0,0,0,0,0,0,0,0,0,0,0,0,0,0,0,0,0,0,0,0,0,0,0,0,0,0,0,0,0,0,0,0,0,0,0],"sum_hessian":[4.36416E5,3.54505E5,8.1911E4,1.50287E5,2.04218E5,6.2405E4,1.9506E4,7.4005E4,7.6282E4,1.45742E5,5.8476E4,5.1048E4,1.1357E4,1.935E4,1.56E2,7.3068E4,9.37E2,7.5035E4,1.247E3,1.31378E5,1.4364E4,3.5254E4,2.3222E4,5.0464E4,5.84E2,1.1049E4,3.08E2,1.7234E4,2.116E3,1.5E2,6E0,6.2747E4,1.0321E4,2.98E2,6.39E2,7.277E4,2.265E3,9.56E2,2.91E2,1.29853E5,1.525E3,1.2695E4,1.669E3,1.2127E4,2.3127E4,1.999E4,3.232E3,4.1367E4,9.097E3,4.46E2,1.38E2,1.009E4,9.59E2,2.32E2,7.6E1,1.6202E4,1.032E3,2.066E3,5E1,9.3E1,5.7E1,4E0,2E0,6.0875E4,1.872E3,3.034E3,7.287E3,2.9E2,8E0,8.035E3,6.4735E4,1.81E3,4.55E2,4.01E2,5.55E2,2.87E2,4E0,1.29439E5,4.14E2,1.462E3,6.3E1,1.2502E4,1.93E2,1.113E3,5.56E2,1.1625E4,5.02E2,2.2541E4,5.86E2,1.6318E4,3.672E3,1.807E3,1.425E3,2.5968E4,1.5399E4,3.586E3,5.511E3,3.88E2,5.8E1,6E0,1.32E2,3.052E3,7.038E3,5.14E2,4.45E2,1.35E2,9.7E1,2E0,7.4E1,1.536E4,8.42E2,1.03E2,9.29E2,1.704E3,3.62E2,4.6E1,4E0,9E1,3E0,3E0,1E0],"tree_param":{"num_deleted":"0","num_feature":"87","num_nodes":"121","size_leaf_vector":"1"}},{"base_weights":[-9.164878E-5,-2.4099799E-1,3.4254663E0,-2.6895627E-2,-2.851731E0,5.2657022E0,2.145932E0,4.5999132E-2,-8.283202E0,-1.8790267E0,-4.5480533E0,4.912987E0,9.769985E0,2.2352972E0,-1.2754183E1,1.251651E-1,-6.2577443E0,-7.2636685E0,-1.540726E1,-1.6259292E0,-8.055382E0,-4.264842E0,-9.993723E0,5.414465E0,1.6120107E0,1.1999545E1,2.6181033E0,3.0173674E0,8.0693036E-1,-1.1797797E1,-5.4961963E0,6.843242E-2,8.440128E0,-4.700984E0,-1.2434641E1,-6.3117614E0,-1.1342668E1,-1.3954455E1,-1.044992E1,-7.5780237E-1,-3.6500452E0,-1.078472E1,9.033629E0,-3.083138E0,-5.715144E0,-1.1138413E1,4.130628E0,5.041277E0,9.272305E0,2.035522E0,-1.9064192E1,1.2938656E1,-4.80148E-2,1.221111E0,1.3558733E1,2.7712939E0,8.189273E0,2.3698173E-1,3.4456167E0,-1.2158158E1,-5.839553E0,5.3317454E-2,-1.984313E0,2.237657E0,3.0386574E0,-1.350528E0,-7.4590726E0,-2.6920936E0,-4.6455398E0,-1.9304947E0,6.9237E0,-4.5955267E0,-1.2384423E0,-7.566091E0,-3.9902124E0,-3.1912237E-1,1.8617607E0,-6.538413E-1,-1.8496987E0,-3.9125726E0,-2.3577065E0,2.0981262E0,3.5386238E0,-1.1869049E0,7.2098047E-1,-3.3898246E0,-1.5411233E0,-2.1053715E0,-3.732963E0,1.6718866E0,1.1588119E0,1.8175974E0,3.229986E0,7.5604403E-1,-2.8587468E0,-3.9567673E0,-6.9039836E0,4.050517E0,6.340864E-1,-1.4344424E0,1.3494083E0,6.180304E-1,-3.250878E0,4.9747376E0,-1.9295244E-1,8.4813327E-1,-3.8697429E0,2.3482568E0,4.1752095E0,1.2684835E-1,-3.0115638E0,3.0242026E-1,1.8324093E0,-4.1166806E0,-2.983443E0,-3.6989138E-1,-1.9205464E0],"categories":[],"categories_nodes":[],"categories_segments":[],"categories_sizes":[],"default_left":[0,0,0,0,0,0,0,0,0,0,0,0,0,0,0,0,0,0,0,0,0,0,0,0,0,0,0,0,0,0,0,0,0,0,0,0,0,0,0,0,0,0,0,0,0,0,0,0,0,0,0,0,0,0,0,0,0,0,0,0,0,0,0,0,0,0,0,0,0,0,0,0,0,0,0,0,0,0,0,0,0,0,0,0,0,0,0,0,0,0,0,0,0,0,0,0,0,0,0,0,0,0,0,0,0,0,0,0,0,0,0,0,0,0,0,0,0],"id":5,"left_children":[1,3,5,7,9,11,13,15,17,19,21,23,25,27,29,31,33,35,37,39,41,43,45,47,49,51,53,55,57,59,-1,61,63,65,67,69,71,73,-1,75,77,79,81,83,85,87,-1,89,91,93,95,97,99,101,103,105,107,109,111,113,115,-1,-1,-1,-1,-1,-1,-1,-1,-1,-1,-1,-1,-1,-1,-1,-1,-1,-1,-1,-1,-1,-1,-1,-1,-1,-1,-1,-1,-1,-1,-1,-1,-1,-1,-1,-1,-1,-1,-1,-1,-1,-1,-1,-1,-1,-1,-1,-1,-1,-1,-1,-1,-1,-1,-1,-1],"loss_changes":[3.6014897E5,2.2791362E5,6.750819E4,2.2679833E5,5.0983656E4,1.8635469E4,2.2553047E4,1.864144E5,2.3842188E4,3.0693234E4,1.7326469E4,1.8048031E4,1.3570141E4,1.878243E4,3.2154883E2,1.7402588E5,4.4492234E4,1.1138125E4,1.1141336E4,3.3157145E4,3.615146E4,1.8332344E4,1.5276949E4,1.3585781E4,1.2648316E4,7.354703E3,3.1013738E3,1.3806133E4,8.948984E3,1.200957E2,0E0,2.6762128E5,4.0671875E3,1.4758516E4,9.700859E3,8.633766E3,1.5569102E4,2.500086E3,0E0,2.8145678E4,2.0939977E4,4.3022734E3,5.2031055E2,2.8284766E4,1.5456109E4,2.7675547E3,0E0,5.3899688E3,3.9398047E3,7.9376094E3,3.6929395E2,3.6468828E3,1.0543955E3,1.8634388E3,9.9834717E2,9.110344E3,9.12625E2,9.352063E3,6.8535264E3,1.5087305E2,1.0237686E1,0E0,0E0,0E0,0E0,0E0,0E0,0E0,0E0,0E0,0E0,0E0,0E0,0E0,0E0,0E0,0E0,0E0,0E0,0E0,0E0,0E0,0E0,0E0,0E0,0E0,0E0,0E0,0E0,0E0,0E0,0E0,0E0,0E0,0E0,0E0,0E0,0E0,0E0,0E0,0E0,0E0,0E0,0E0,0E0,0E0,0E0,0E0,0E0,0E0,0E0,0E0,0E0,0E0,0E0,0E0,0E0],"parents":[2147483647,0,0,1,1,2,2,3,3,4,4,5,5,6,6,7,7,8,8,9,9,10,10,11,11,12,12,13,13,14,14,15,15,16,16,17,17,18,18,19,19,20,20,21,21,22,22,23,23,24,24,25,25,26,26,27,27,28,28,29,29,31,31,32,32,33,33,34,34,35,35,36,36,37,37,39,39,40,40,41,41,42,42,43,43,44,44,45,45,47,47,48,48,49,49,50,50,51,51,52,52,53,53,54,54,55,55,56,56,57,57,58,58,59,59,60,60],"right_children":[2,4,6,8,10,12,14,16,18,20,22,24,26,28,30,32,34,36,38,40,42,44,46,48,50,52,54,56,58,60,-1,62,64,66,68,70,72,74,-1,76,78,80,82,84,86,88,-1,90,92,94,96,98,100,102,104,106,108,110,112,114,116,-1,-1,-1,-1,-1,-1,-1,-1,-1,-1,-1,-1,-1,-1,-1,-1,-1,-1,-1,-1,-1,-1,-1,-1,-1,-1,-1,-1,-1,-1,-1,-1,-1,-1,-1,-1,-1,-1,-1,-1,-1,-1,-1,-1,-1,-1,-1,-1,-1,-1,-1,-1,-1,-1,-1,-1],"split_conditions":[1E0,2.1E1,1E0,1E0,1E0,1E0,1E0,1E0,1E0,1E0,1E0,1E0,1E0,1E0,1E0,1E0,2E0,1E0,7E0,3.7E1,1E0,2.8E1,2E0,3E0,1E0,1E0,3E0,1E0,9E0,1E0,-5.4961963E0,1E0,2E0,1E0,1E0,2E0,4E0,3E0,-1.044992E1,4E0,1E0,1E0,3E0,1E0,1.4E1,1E0,4.130628E0,7E0,3E0,3E0,1E0,1E0,1E0,2E0,2E0,1E0,1E0,1E0,6E0,1E0,1E0,5.3317454E-2,-1.984313E0,2.237657E0,3.0386574E0,-1.350528E0,-7.4590726E0,-2.6920936E0,-4.6455398E0,-1.9304947E0,6.9237E0,-4.5955267E0,-1.2384423E0,-7.566091E0,-3.9902124E0,-3.1912237E-1,1.8617607E0,-6.538413E-1,-1.8496987E0,-3.9125726E0,-2.3577065E0,2.0981262E0,3.5386238E0,-1.1869049E0,7.2098047E-1,-3.3898246E0,-1.5411233E0,-2.1053715E0,-3.732963E0,1.6718866E0,1.1588119E0,1.8175974E0,3.229986E0,7.5604403E-1,-2.8587468E0,-3.9567673E0,-6.9039836E0,4.050517E0,6.340864E-1,-1.4344424E0,1.3494083E0,6.180304E-1,-3.250878E0,4.9747376E0,-1.9295244E-1,8.4813327E-1,-3.8697429E0,2.3482568E0,4.1752095E0,1.2684835E-1,-3.0115638E0,3.0242026E-1,1.8324093E0,-4.1166806E0,-2.983443E0,-3.6989138E-1,-1.9205464E0],"split_indices":[61,75,66,38,34,37,38,37,4,7,37,5,52,34,6,0,10,8,69,75,0,75,2,84,6,21,85,41,68,59,0,7,33,4,12,2,72,73,0,33,8,19,9,22,70,12,0,75,77,8,82,39,81,57,52,48,31,37,70,10,18,0,0,0,0,0,0,0,0,0,0,0,0,0,0,0,0,0,0,0,0,0,0,0,0,0,0,0,0,0,0,0,0,0,0,0,0,0,0,0,0,0,0,0,0,0,0,0,0,0,0,0,0,0,0,0,0],"split_type":[0,0,0,0,0,0,0,0,0,0,0,0,0,0,0,0,0,0,0,0,0,0,0,0,0,0,0,0,0,0,0,0,0,0,0,0,0,0,0,0,0,0,0,0,0,0,0,0,0,0,0,0,0,0,0,0,0,0,0,0,0,0,0,0,0,0,0,0,0,0,0,0,0,0,0,0,0,0,0,0,0,0,0,0,0,0,0,0,0,0,0,0,0,0,0,0,0,0,0,0,0,0,0,0,0,0,0,0,0,0,0,0,0,0,0,0,0],"sum_hessian":[4.36416E5,4.07742E5,2.8674E4,3.76839E5,3.0903E4,1.1759E4,1.6915E4,3.73542E5,3.297E3,1.9642E4,1.1261E4,1.0907E4,8.52E2,1.6815E4,1E2,3.6891E5,4.632E3,2.886E3,4.11E2,1.887E4,7.72E2,1.0706E4,5.55E2,9.468E3,1.439E3,6.49E2,2.03E2,1.0865E4,5.95E3,8.8E1,1.2E1,3.66411E5,2.499E3,3.701E3,9.31E2,2.342E3,5.44E2,3.84E2,2.7E1,1.3207E4,5.663E3,6.66E2,1.06E2,5.901E3,4.805E3,5.3E2,2.5E1,8.635E3,8.33E2,1.411E3,2.8E1,6.02E2,4.7E1,1.81E2,2.2E1,1.0373E4,4.92E2,4.894E3,1.056E3,8.2E1,6E0,3.60516E5,5.895E3,1.584E3,9.15E2,3.666E3,3.5E1,4.38E2,4.93E2,2.333E3,9E0,3.5E2,1.94E2,1.9E1,3.65E2,1.2652E4,5.55E2,3.575E3,2.088E3,3.74E2,2.92E2,6.3E1,4.3E1,5.091E3,8.1E2,4.49E2,4.356E3,1.29E2,4.01E2,5.948E3,2.687E3,2.66E2,5.67E2,1.355E3,5.6E1,1.3E1,1.5E1,5.72E2,3E1,2.3E1,2.4E1,1.7E2,1.1E1,1.8E1,4E0,1.0337E4,3.6E1,4.65E2,2.7E1,4.808E3,8.6E1,5.52E2,5.04E2,4.5E1,3.7E1,1E0,5E0],"tree_param":{"num_deleted":"0","num_feature":"87","num_nodes":"117","size_leaf_vector":"1"}},{"base_weights":[-1.8722503E-4,1.3753036E0,-3.7109315E-1,1.5554038E0,-5.812063E0,1.5904758E-2,-1.2798308E0,1.6143898E0,-1.8443125E1,-9.929339E0,-4.5056014E0,4.8046023E-1,-1.2594938E0,-1.8471369E0,1.1195816E0,2.1773336E0,1.0328712E-1,-1.7843855E1,-9.213938E0,-9.114651E0,-1.4913191E1,-3.4759371E0,-9.620402E0,5.9343725E-1,-3.3552003E0,-8.46014E-1,-2.7519348E0,-2.0184527E-1,-2.670805E0,6.267939E-1,3.4999099E0,2.0821605E0,6.2624593E0,-9.240506E0,5.9817165E-1,-1.6697306E1,-6.8546543E0,-8.761826E0,-5.114111E0,-1.5937373E1,-6.6622667E0,-4.248041E0,1.3409892E0,-1.1511645E1,-6.5009284E0,9.387625E-1,-3.5016224E-1,-5.779233E0,6.9535694E0,-6.942452E-1,-3.509393E0,-2.632104E0,-1.1565611E1,1.12302475E-1,-5.302955E0,-4.976768E0,-2.102785E0,9.7229373E-1,-2.3321579E0,2.1511743E0,6.486458E0,6.810844E-1,-1.9648655E-1,1.5249678E0,2.54304E0,-2.4673488E0,-5.0739584E0,-3.3523697E-2,1.1072929E0,-5.213432E0,-3.8273656E0,-2.566991E0,-6.786679E0,-6.802731E0,-3.9982712E0,-2.399025E0,-2.6486742E-1,-1.3546582E0,1.6943963E0,1.2650405E-1,2.0146508E0,-3.5291142E0,7.182833E-1,-2.7566636E0,-1.1379724E0,2.950431E-1,-2.6942904E0,4.7144395E-1,-2.512511E-1,-2.2416368E0,-8.631943E-1,2.1857426E0,-1.5900105E0,-2.0330215E0,-1.903397E-1,-7.6523906E-1,-2.7822585E0,-7.442535E-1,-2.7016969E0,-3.2106078E0,-4.5814114E0,1.3208942E-1,-1.4698105E0,-1.0372599E0,-2.9002383E0,-2.2265115E0,-8.3583003E-1,-8.247377E-1,-1.05120525E-1,3.7035877E-1,-4.876403E-1,-3.1918544E-1,-1.3901236E0,6.8217075E-1,-5.4705324E0,2.0048754E0,-3.7872088E0],"categories":[],"categories_nodes":[],"categories_segments":[],"categories_sizes":[],"default_left":[0,0,0,0,0,0,0,0,0,0,0,0,0,0,0,0,0,0,0,0,0,0,0,0,0,0,0,0,0,0,0,0,0,0,0,0,0,0,0,0,0,0,0,0,0,0,0,0,0,0,0,0,0,0,0,0,0,0,0,0,0,0,0,0,0,0,0,0,0,0,0,0,0,0,0,0,0,0,0,0,0,0,0,0,0,0,0,0,0,0,0,0,0,0,0,0,0,0,0,0,0,0,0,0,0,0,0,0,0,0,0,0,0,0,0,0,0],"id":6,"left_children":[1,3,5,7,9,11,13,15,17,19,21,23,25,27,29,31,33,35,-1,37,39,41,43,45,47,49,51,53,55,57,59,61,63,65,67,69,-1,71,-1,73,75,77,79,81,83,85,87,89,91,93,95,97,99,101,103,105,107,109,111,113,115,-1,-1,-1,-1,-1,-1,-1,-1,-1,-1,-1,-1,-1,-1,-1,-1,-1,-1,-1,-1,-1,-1,-1,-1,-1,-1,-1,-1,-1,-1,-1,-1,-1,-1,-1,-1,-1,-1,-1,-1,-1,-1,-1,-1,-1,-1,-1,-1,-1,-1,-1,-1,-1,-1,-1,-1],"loss_changes":[2.2265075E5,1.1998866E5,1.2088284E5,1.0669561E5,1.2144227E4,1.4283239E5,1.3974572E5,7.669411E4,1.4078672E3,2.0769258E3,9.03552E3,7.657603E4,3.971633E4,1.1252094E5,2.3026076E4,2.5525625E4,1.1316647E5,1.0875391E3,0E0,1.1688438E3,5.276035E2,5.342699E3,1.6242734E3,5.5932582E4,1.2638354E5,2.037095E4,1.4716586E4,4.4391504E4,7.246391E4,1.663128E4,1.3548539E4,3.305497E4,3.8606992E3,9.457195E3,5.103137E4,3.4686328E2,0E0,1.0947656E3,0E0,8.584551E2,7.006448E1,3.2999062E3,9.8039526E2,6.520996E2,7.730171E2,5.5747438E4,4.306982E4,2.0090781E4,3.9591133E3,1.733475E4,1.4990805E4,1.3259469E4,4.3501172E2,4.289727E4,1.2909926E4,5.8547656E4,5.0284703E4,9.924731E3,4.9600986E3,5.848542E3,4.0152695E3,0E0,0E0,0E0,0E0,0E0,0E0,0E0,0E0,0E0,0E0,0E0,0E0,0E0,0E0,0E0,0E0,0E0,0E0,0E0,0E0,0E0,0E0,0E0,0E0,0E0,0E0,0E0,0E0,0E0,0E0,0E0,0E0,0E0,0E0,0E0,0E0,0E0,0E0,0E0,0E0,0E0,0E0,0E0,0E0,0E0,0E0,0E0,0E0,0E0,0E0,0E0,0E0,0E0,0E0,0E0,0E0],"parents":[2147483647,0,0,1,1,2,2,3,3,4,4,5,5,6,6,7,7,8,8,9,9,10,10,11,11,12,12,13,13,14,14,15,15,16,16,17,17,19,19,20,20,21,21,22,22,23,23,24,24,25,25,26,26,27,27,28,28,29,29,30,30,31,31,32,32,33,33,34,34,35,35,37,37,39,39,40,40,41,41,42,42,43,43,44,44,45,45,46,46,47,47,48,48,49,49,50,50,51,51,52,52,53,53,54,54,55,55,56,56,57,57,58,58,59,59,60,60],"right_children":[2,4,6,8,10,12,14,16,18,20,22,24,26,28,30,32,34,36,-1,38,40,42,44,46,48,50,52,54,56,58,60,62,64,66,68,70,-1,72,-1,74,76,78,80,82,84,86,88,90,92,94,96,98,100,102,104,106,108,110,112,114,116,-1,-1,-1,-1,-1,-1,-1,-1,-1,-1,-1,-1,-1,-1,-1,-1,-1,-1,-1,-1,-1,-1,-1,-1,-1,-1,-1,-1,-1,-1,-1,-1,-1,-1,-1,-1,-1,-1,-1,-1,-1,-1,-1,-1,-1,-1,-1,-1,-1,-1,-1,-1,-1,-1,-1,-1],"split_conditions":[6E0,1E0,1E0,2E0,1E0,1E0,1E0,1E0,1E0,1E0,1E0,1E0,1.3E1,1E0,2E0,1E0,1E0,7E0,-9.213938E0,2E0,1E0,1E0,2E0,1E0,1E0,4E0,2E0,1E0,1E0,1E0,1E0,1E0,2E0,2E0,1E0,1E0,-6.8546543E0,2E0,-5.114111E0,9E0,3E0,3E0,2E0,1E0,1E0,1E0,3E0,1E0,2E0,2E0,2E0,1E0,2E1,1E0,5E0,2E0,1E0,2.4E1,1.2E1,2E0,2E0,6.810844E-1,-1.9648655E-1,1.5249678E0,2.54304E0,-2.4673488E0,-5.0739584E0,-3.3523697E-2,1.1072929E0,-5.213432E0,-3.8273656E0,-2.566991E0,-6.786679E0,-6.802731E0,-3.9982712E0,-2.399025E0,-2.6486742E-1,-1.3546582E0,1.6943963E0,1.2650405E-1,2.0146508E0,-3.5291142E0,7.182833E-1,-2.7566636E0,-1.1379724E0,2.950431E-1,-2.6942904E0,4.7144395E-1,-2.512511E-1,-2.2416368E0,-8.631943E-1,2.1857426E0,-1.5900105E0,-2.0330215E0,-1.903397E-1,-7.6523906E-1,-2.7822585E0,-7.442535E-1,-2.7016969E0,-3.2106078E0,-4.5814114E0,1.3208942E-1,-1.4698105E0,-1.0372599E0,-2.9002383E0,-2.2265115E0,-8.3583003E-1,-8.247377E-1,-1.05120525E-1,3.7035877E-1,-4.876403E-1,-3.1918544E-1,-1.3901236E0,6.8217075E-1,-5.4705324E0,2.0048754E0,-3.7872088E0],"split_indices":[69,38,8,6,3,34,1,5,63,22,8,7,75,16,1,0,3,70,0,38,84,31,85,35,0,36,5,12,3,13,14,77,84,16,22,22,0,13,0,70,43,86,16,31,83,12,74,19,7,70,34,7,73,14,75,85,63,75,73,13,13,0,0,0,0,0,0,0,0,0,0,0,0,0,0,0,0,0,0,0,0,0,0,0,0,0,0,0,0,0,0,0,0,0,0,0,0,0,0,0,0,0,0,0,0,0,0,0,0,0,0,0,0,0,0,0,0],"split_type":[0,0,0,0,0,0,0,0,0,0,0,0,0,0,0,0,0,0,0,0,0,0,0,0,0,0,0,0,0,0,0,0,0,0,0,0,0,0,0,0,0,0,0,0,0,0,0,0,0,0,0,0,0,0,0,0,0,0,0,0,0,0,0,0,0,0,0,0,0,0,0,0,0,0,0,0,0,0,0,0,0,0,0,0,0,0,0,0,0,0,0,0,0,0,0,0,0,0,0,0,0,0,0,0,0,0,0,0,0,0,0,0,0,0,0,0,0],"sum_hessian":[4.36416E5,9.2687E4,3.43729E5,9.0422E4,2.265E3,2.41068E5,1.02661E5,9.0157E4,2.65E2,5.44E2,1.721E3,1.76705E5,6.4363E4,8.303E4,1.9631E4,6.5686E4,2.4471E4,2.55E2,1E1,4.7E2,7.4E1,1.434E3,2.87E2,1.7165E5,5.055E3,5.0401E4,1.3962E4,2.77E4,5.533E4,1.6265E4,3.366E3,6.4192E4,1.494E3,1.23E3,2.3241E4,2.11E2,4.4E1,4.52E2,1.8E1,6.5E1,9E0,1.236E3,1.98E2,1.77E2,1.1E2,1.25662E5,4.5988E4,4.093E3,9.62E2,4.7685E4,2.716E3,1.3776E4,1.86E2,2.6094E4,1.606E3,1.0934E4,4.4396E4,1.4565E4,1.7E3,2.32E3,1.046E3,6.0064E4,4.128E3,9.77E2,5.17E2,1.088E3,1.42E2,1.8903E4,4.338E3,1.77E2,3.4E1,4.47E2,5E0,1.6E1,4.9E1,7E0,2E0,1.204E3,3.2E1,1.7E2,2.8E1,1.74E2,3E0,5.4E1,5.6E1,1.25099E5,5.63E2,9.303E3,3.6685E4,2.584E3,1.509E3,9.37E2,2.5E1,4.63E2,4.7222E4,2.33E3,3.86E2,1.3458E4,3.18E2,1.54E2,3.2E1,2.4492E4,1.602E3,1.13E3,4.76E2,5.166E3,5.768E3,3.2433E4,1.1963E4,1.323E4,1.335E3,1.097E3,6.03E2,2.307E3,1.3E1,1.036E3,1E1],"tree_param":{"num_deleted":"0","num_feature":"87","num_nodes":"117","size_leaf_vector":"1"}},{"base_weights":[-3.5716998E-4,4.3360078E-1,-6.585842E-1,-2.3405856E-1,9.6587396E-1,-4.00204E0,-4.8419234E-1,-5.1047474E-2,-2.5189202E0,1.0593737E0,-3.4854195E0,-2.77135E0,-5.7556157E0,-3.0846712E-1,-2.2405796E0,-2.8153622E-1,1.6707634E0,-2.2577643E0,-9.539256E0,1.082202E0,-1.3087464E1,-5.8049316E0,4.721959E0,-2.1681988E0,-5.6931458E0,-6.46255E0,3.9600112E0,-8.414109E-1,2.4395384E-1,-2.406646E0,3.7606232E0,-7.832216E-2,-3.69021E0,3.5342436E0,6.726377E-1,-2.0669408E0,-4.652264E0,-1.2165602E1,-2.8809638E0,7.772783E-1,2.09729E0,-1.7184465E1,-3.4746563E0,-7.9000645E0,-4.1701083E0,6.0209923E0,-5.1146345E0,-2.4998128E0,1.3667479E0,-6.2537947E0,-3.6299736E0,-5.842107E0,-1.2818566E1,6.966948E0,2.924745E0,-1.4240383E0,1.7575404E-2,1.662622E-1,6.544943E0,-6.5682645E0,-2.191656E0,3.3999882E0,5.4925847E0,2.0607416E-1,-1.8406472E-1,-2.0266635E0,2.9384726E-1,7.8662556E-1,1.9791723E0,6.2741107E-1,-3.734263E-2,-6.1231446E-1,-4.107929E0,-4.135889E-1,-1.6869476E0,-4.9670186E0,-2.529182E0,-5.809604E-1,-4.6868434E0,3.554036E-1,-7.516965E-2,5.993921E-1,3.546489E0,-7.2335143E0,-4.8348966E0,5.614548E-1,-2.7183244E0,-1.1528723E0,-5.0473175E0,2.2724397E0,6.301907E-1,-1.9398133E0,2.8548713E0,-2.8719008E-1,-1.0548482E0,5.181867E-1,-1.8027905E0,-1.8550706E0,-5.9980483E0,3.0043957E0,-1.1271522E0,-1.7942983E0,2.9202662E0,-3.0088553E0,-4.7262206E0,2.228939E0,8.9155656E-1,7.4997985E-1,3.5396464E0,-4.9582705E-1,1.8128756E-1,-1.832588E-2,1.566207E0,-6.5676785E-1,1.0793121E-1,2.4194438E0,1.25525E0,-2.456621E0,-1.02587E0,-2.3276203E0,-6.1497915E-1,1.0928925E0,2.6518753E-1,2.1094094E-1,1.6660725E0],"categories":[],"categories_nodes":[],"categories_segments":[],"categories_sizes":[],"default_left":[0,0,0,0,0,0,0,0,0,0,0,0,0,0,0,0,0,0,0,0,0,0,0,0,0,0,0,0,0,0,0,0,0,0,0,0,0,0,0,0,0,0,0,0,0,0,0,0,0,0,0,0,0,0,0,0,0,0,0,0,0,0,0,0,0,0,0,0,0,0,0,0,0,0,0,0,0,0,0,0,0,0,0,0,0,0,0,0,0,0,0,0,0,0,0,0,0,0,0,0,0,0,0,0,0,0,0,0,0,0,0,0,0,0,0,0,0,0,0,0,0,0,0,0,0],"id":7,"left_children":[1,3,5,7,9,11,13,15,17,19,21,23,25,27,29,31,33,35,37,39,41,43,45,47,49,51,53,55,57,59,61,63,65,67,69,71,73,75,77,79,81,83,-1,85,87,89,91,93,95,97,99,101,103,105,107,109,111,113,115,117,119,121,123,-1,-1,-1,-1,-1,-1,-1,-1,-1,-1,-1,-1,-1,-1,-1,-1,-1,-1,-1,-1,-1,-1,-1,-1,-1,-1,-1,-1,-1,-1,-1,-1,-1,-1,-1,-1,-1,-1,-1,-1,-1,-1,-1,-1,-1,-1,-1,-1,-1,-1,-1,-1,-1,-1,-1,-1,-1,-1,-1,-1,-1,-1],"loss_changes":[1.2465968E5,9.347011E4,1.0110382E5,4.8786438E4,6.091214E4,1.8535156E4,5.0865586E4,4.2869074E4,1.5841051E4,4.630417E4,5.7348156E4,8.892477E3,2.4366867E4,4.4108312E4,1.49470625E4,6.599094E4,2.3718047E4,3.8025234E3,5.385916E3,4.429314E4,1.2255703E3,8.0093594E3,8.515427E3,4.915092E3,9.767012E2,1.2954594E4,7.2985156E2,3.816278E4,3.601199E4,1.3035789E4,2.336665E2,3.6824887E4,7.673073E4,1.2410141E4,9.393434E3,2.298746E3,1.9469346E3,3.5014023E3,1.0407517E3,4.6083062E4,3.190236E4,5.5367188E1,0E0,1.1679578E4,5.4049297E3,3.5597852E3,1.6037712E3,6.0026035E3,9.677523E2,5.3056055E2,3.6218433E2,6.574258E3,2.2408633E3,9.0716064E1,6.5284045E2,2.1079531E4,1.2614095E4,3.3124742E4,3.181164E3,3.6253008E3,1.0928289E4,2.028086E2,1.5958252E1,0E0,0E0,0E0,0E0,0E0,0E0,0E0,0E0,0E0,0E0,0E0,0E0,0E0,0E0,0E0,0E0,0E0,0E0,0E0,0E0,0E0,0E0,0E0,0E0,0E0,0E0,0E0,0E0,0E0,0E0,0E0,0E0,0E0,0E0,0E0,0E0,0E0,0E0,0E0,0E0,0E0,0E0,0E0,0E0,0E0,0E0,0E0,0E0,0E0,0E0,0E0,0E0,0E0,0E0,0E0,0E0,0E0,0E0,0E0,0E0,0E0,0E0],"parents":[2147483647,0,0,1,1,2,2,3,3,4,4,5,5,6,6,7,7,8,8,9,9,10,10,11,11,12,12,13,13,14,14,15,15,16,16,17,17,18,18,19,19,20,20,21,21,22,22,23,23,24,24,25,25,26,26,27,27,28,28,29,29,30,30,31,31,32,32,33,33,34,34,35,35,36,36,37,37,38,38,39,39,40,40,41,41,43,43,44,44,45,45,46,46,47,47,48,48,49,49,50,50,51,51,52,52,53,53,54,54,55,55,56,56,57,57,58,58,59,59,60,60,61,61,62,62],"right_children":[2,4,6,8,10,12,14,16,18,20,22,24,26,28,30,32,34,36,38,40,42,44,46,48,50,52,54,56,58,60,62,64,66,68,70,72,74,76,78,80,82,84,-1,86,88,90,92,94,96,98,100,102,104,106,108,110,112,114,116,118,120,122,124,-1,-1,-1,-1,-1,-1,-1,-1,-1,-1,-1,-1,-1,-1,-1,-1,-1,-1,-1,-1,-1,-1,-1,-1,-1,-1,-1,-1,-1,-1,-1,-1,-1,-1,-1,-1,-1,-1,-1,-1,-1,-1,-1,-1,-1,-1,-1,-1,-1,-1,-1,-1,-1,-1,-1,-1,-1,-1,-1,-1,-1,-1],"split_conditions":[1.2E1,6E0,1E0,8E0,1E0,1E0,2.8E1,1E0,1E0,2E0,1E0,7E0,2E0,2E0,1E0,1E0,5E0,1E0,1E0,1E0,1E0,1E0,1E0,2E0,1E0,2E0,1.4E1,1E0,4E0,1.9E1,1E0,6E0,1E0,6E0,1E0,2E0,1E0,2E0,2E0,4E0,2E0,2E0,-3.4746563E0,1E0,1E0,7E0,1E0,1E0,1.4E1,1E0,1E0,1.2E1,2E0,6E0,1.3E1,1E0,1E0,1E0,1E0,1E0,2E0,4.2E1,3E0,2.0607416E-1,-1.8406472E-1,-2.0266635E0,2.9384726E-1,7.8662556E-1,1.9791723E0,6.2741107E-1,-3.734263E-2,-6.1231446E-1,-4.107929E0,-4.135889E-1,-1.6869476E0,-4.9670186E0,-2.529182E0,-5.809604E-1,-4.6868434E0,3.554036E-1,-7.516965E-2,5.993921E-1,3.546489E0,-7.2335143E0,-4.8348966E0,5.614548E-1,-2.7183244E0,-1.1528723E0,-5.0473175E0,2.2724397E0,6.301907E-1,-1.9398133E0,2.8548713E0,-2.8719008E-1,-1.0548482E0,5.181867E-1,-1.8027905E0,-1.8550706E0,-5.9980483E0,3.0043957E0,-1.1271522E0,-1.7942983E0,2.9202662E0,-3.0088553E0,-4.7262206E0,2.228939E0,8.9155656E-1,7.4997985E-1,3.5396464E0,-4.9582705E-1,1.8128756E-1,-1.832588E-2,1.566207E0,-6.5676785E-1,1.0793121E-1,2.4194438E0,1.25525E0,-2.456621E0,-1.02587E0,-2.3276203E0,-6.1497915E-1,1.0928925E0,2.6518753E-1,2.1094094E-1,1.6660725E0],"split_indices":[73,70,9,73,37,45,75,22,11,6,61,69,1,9,41,6,73,15,44,44,10,9,48,22,23,2,75,44,33,73,43,73,41,75,42,7,7,79,22,75,22,35,0,12,4,78,13,42,73,4,79,70,42,54,70,63,39,33,8,14,9,80,74,0,0,0,0,0,0,0,0,0,0,0,0,0,0,0,0,0,0,0,0,0,0,0,0,0,0,0,0,0,0,0,0,0,0,0,0,0,0,0,0,0,0,0,0,0,0,0,0,0,0,0,0,0,0,0,0,0,0,0,0,0,0],"split_type":[0,0,0,0,0,0,0,0,0,0,0,0,0,0,0,0,0,0,0,0,0,0,0,0,0,0,0,0,0,0,0,0,0,0,0,0,0,0,0,0,0,0,0,0,0,0,0,0,0,0,0,0,0,0,0,0,0,0,0,0,0,0,0,0,0,0,0,0,0,0,0,0,0,0,0,0,0,0,0,0,0,0,0,0,0,0,0,0,0,0,0,0,0,0,0,0,0,0,0,0,0,0,0,0,0,0,0,0,0,0,0,0,0,0,0,0,0,0,0,0,0,0,0,0,0],"sum_hessian":[4.36416E5,2.63015E5,1.73401E5,1.1667E5,1.46345E5,8.595E3,1.64806E5,1.08019E5,8.651E3,1.43335E5,3.01E3,5.052E3,3.543E3,1.49818E5,1.4988E4,9.5267E4,1.2752E4,8.342E3,3.09E2,1.43105E5,2.3E2,2.347E3,6.63E2,4.189E3,8.63E2,3.303E3,2.4E2,7.6253E4,7.3565E4,1.4585E4,4.03E2,8.9908E4,5.359E3,4.447E3,8.305E3,7.728E3,6.14E2,2.21E2,8.8E1,1.10049E5,3.3056E4,5.9E1,1.71E2,1.027E3,1.32E3,5.86E2,7.7E1,3.83E3,3.59E2,6.77E2,1.86E2,3.011E3,2.92E2,6E1,1.8E2,4.5435E4,3.0818E4,7.267E4,8.95E2,7.15E2,1.387E4,3.36E2,6.7E1,3.7003E4,5.2905E4,3.235E3,2.124E3,3.428E3,1.019E3,2.987E3,5.318E3,7.712E3,1.6E1,1.41E2,4.73E2,1E2,1.21E2,8.3E1,5E0,7.8811E4,3.1238E4,3.2723E4,3.33E2,5E0,5.4E1,1.09E2,9.18E2,1.288E3,3.2E1,4.19E2,1.67E2,7.1E1,6E0,1.522E3,2.308E3,3.43E2,1.6E1,6.75E2,2E0,1E0,1.85E2,2.985E3,2.6E1,1.52E2,1.4E2,5.3E1,7E0,1.73E2,7E0,4.0831E4,4.604E3,3.036E4,4.58E2,5.516E3,6.7154E4,5.43E2,3.52E2,4.71E2,2.44E2,3.43E2,1.3527E4,3.06E2,3E1,1E0,6.6E1],"tree_param":{"num_deleted":"0","num_feature":"87","num_nodes":"125","size_leaf_vector":"1"}},{"base_weights":[-3.4190965E-4,-1.1857726E-1,1.6809008E0,-5.5500027E-2,-3.0891452E0,2.936977E0,8.075777E-1,-1.8921174E-2,-3.7023194E0,-4.858062E0,-1.3140665E0,2.6887195E0,6.1082015E0,6.848485E-1,4.8439713E0,7.754653E-1,-1.8328798E-1,-2.6733968E0,-7.3976192E0,-4.5926986E0,-1.6789862E1,-2.2457852E0,1.3222176E0,2.7467816E0,-9.725542E0,7.513928E0,2.887876E-1,2.4268305E-1,1.859438E0,-8.675261E0,5.0261025E0,8.176045E-1,-9.881227E0,6.683116E-2,-8.1042254E-1,-1.2584666E0,-3.7453053E0,-8.071261E0,3.676116E0,-4.01805E0,-9.817677E0,-1.813572E1,-3.9402606E0,-1.8342786E0,-6.0211134E0,3.1213899E0,-1.8486997E0,2.5751545E0,4.9671235E0,-7.6857085E0,-1.335311E1,1.3883986E1,6.5671296E0,-6.831184E-1,9.503845E0,3.051905E-1,-7.9832163E0,1.3883106E0,3.363987E0,-3.2667525E0,-6.2809527E-1,4.759543E0,9.2829075E0,2.7865404E-1,-9.709683E-1,-2.8014414E0,-6.5014358E0,4.007445E-2,-7.023095E-1,4.1720726E-2,-4.090134E-1,-1.3650239E-1,-1.3631672E0,-1.4008833E0,-5.814829E-1,-1.9138589E0,-3.9227397E0,-1.6479722E-1,-1.4598949E0,-6.1272187E0,-1.7181767E0,-3.583946E0,-5.7975926E0,-1.4173625E0,-6.6332155E-1,-4.2976376E-1,-1.8218838E0,-2.1523397E0,-5.5857474E-1,2.2260706E0,6.163325E-1,-2.2651224E-1,-1.2857112E0,7.841528E-1,-2.1605487E0,4.7306868E-1,1.6896936E0,-1.0305512E0,-2.6453698E0,-4.336516E0,-1.017708E0,4.321129E0,1.313926E0,2.1957545E0,2.8512883E-1,-1.3718075E0,4.3361014E-1,3.6179976E0,-3.5387766E-1,1.1418699E-1,-1.0666561E0,-2.1198304E0,-3.3777356E0,5.822854E-1,1.4688854E-1,1.0361797E0,-4.945526E0,1.4400836E0,6.473148E-1,2.9089506E0,1.313165E0],"categories":[],"categories_nodes":[],"categories_segments":[],"categories_sizes":[],"default_left":[0,0,0,0,0,0,0,0,0,0,0,0,0,0,0,0,0,0,0,0,0,0,0,0,0,0,0,0,0,0,0,0,0,0,0,0,0,0,0,0,0,0,0,0,0,0,0,0,0,0,0,0,0,0,0,0,0,0,0,0,0,0,0,0,0,0,0,0,0,0,0,0,0,0,0,0,0,0,0,0,0,0,0,0,0,0,0,0,0,0,0,0,0,0,0,0,0,0,0,0,0,0,0,0,0,0,0,0,0,0,0,0,0,0,0,0,0,0,0,0,0],"id":8,"left_children":[1,3,5,7,9,11,13,15,17,19,21,23,25,27,29,31,33,35,37,39,41,43,45,47,49,51,53,55,57,59,61,63,65,67,69,71,73,75,-1,77,79,81,83,85,87,89,91,93,95,97,99,101,103,105,107,109,111,113,115,-1,-1,117,119,-1,-1,-1,-1,-1,-1,-1,-1,-1,-1,-1,-1,-1,-1,-1,-1,-1,-1,-1,-1,-1,-1,-1,-1,-1,-1,-1,-1,-1,-1,-1,-1,-1,-1,-1,-1,-1,-1,-1,-1,-1,-1,-1,-1,-1,-1,-1,-1,-1,-1,-1,-1,-1,-1,-1,-1,-1,-1],"loss_changes":[8.675218E4,7.6400766E4,3.145296E4,5.3260605E4,2.661425E4,9.241992E3,8.376588E3,5.1615023E4,1.5055852E4,1.336682E4,1.0400382E4,7.8891875E3,6.975795E3,8.526449E3,1.2722773E3,3.0441145E4,5.1376344E4,4.7015293E3,1.1523273E4,1.2436055E4,1.5195625E3,4.8485303E3,6.31553E3,4.124875E3,2.7475342E2,4.0522305E3,1.5021726E3,6.1360903E3,3.177996E3,7.919971E1,5.152197E2,3.0446945E4,1.5072656E3,3.7634055E4,4.90298E4,3.5324941E3,2.9389375E3,6.9859727E3,0E0,1.1016633E4,1.771409E4,3.8023047E2,3.1154022E0,4.796634E3,1.4593252E3,3.2229277E3,1.0655298E3,3.8319766E3,1.7456191E3,1.3814355E2,1.3755835E2,3.7164062E2,2.5274727E3,1.265002E3,4.5116077E2,3.4494468E3,1.9083643E2,1.6980835E3,1.9672363E3,0E0,0E0,3.9032227E1,1.4367432E1,0E0,0E0,0E0,0E0,0E0,0E0,0E0,0E0,0E0,0E0,0E0,0E0,0E0,0E0,0E0,0E0,0E0,0E0,0E0,0E0,0E0,0E0,0E0,0E0,0E0,0E0,0E0,0E0,0E0,0E0,0E0,0E0,0E0,0E0,0E0,0E0,0E0,0E0,0E0,0E0,0E0,0E0,0E0,0E0,0E0,0E0,0E0,0E0,0E0,0E0,0E0,0E0,0E0,0E0,0E0,0E0,0E0,0E0],"parents":[2147483647,0,0,1,1,2,2,3,3,4,4,5,5,6,6,7,7,8,8,9,9,10,10,11,11,12,12,13,13,14,14,15,15,16,16,17,17,18,18,19,19,20,20,21,21,22,22,23,23,24,24,25,25,26,26,27,27,28,28,29,29,30,30,31,31,32,32,33,33,34,34,35,35,36,36,37,37,39,39,40,40,41,41,42,42,43,43,44,44,45,45,46,46,47,47,48,48,49,49,50,50,51,51,52,52,53,53,54,54,55,55,56,56,57,57,58,58,61,61,62,62],"right_children":[2,4,6,8,10,12,14,16,18,20,22,24,26,28,30,32,34,36,38,40,42,44,46,48,50,52,54,56,58,60,62,64,66,68,70,72,74,76,-1,78,80,82,84,86,88,90,92,94,96,98,100,102,104,106,108,110,112,114,116,-1,-1,118,120,-1,-1,-1,-1,-1,-1,-1,-1,-1,-1,-1,-1,-1,-1,-1,-1,-1,-1,-1,-1,-1,-1,-1,-1,-1,-1,-1,-1,-1,-1,-1,-1,-1,-1,-1,-1,-1,-1,-1,-1,-1,-1,-1,-1,-1,-1,-1,-1,-1,-1,-1,-1,-1,-1,-1,-1,-1,-1],"split_conditions":[1E0,1E0,1E0,1E0,1E0,1E0,1E0,6E0,9E0,1E0,1E0,2E0,1E0,1E0,1E0,2E0,1E0,1E0,2E0,1E0,1E0,1.3E1,1E0,2E0,1E0,1E0,1E0,1E0,3E0,1E0,1E0,1E0,1E0,1E0,1E0,1E0,1E0,1E0,3.676116E0,1E0,1E0,1E0,1E0,1E0,1E0,2E0,2E0,1E0,7E0,1E0,2E0,1E0,1E0,1E0,2E0,1E1,5E0,4E0,1.4E1,-3.2667525E0,-6.2809527E-1,2.3E1,2E0,2.7865404E-1,-9.709683E-1,-2.8014414E0,-6.5014358E0,4.007445E-2,-7.023095E-1,4.1720726E-2,-4.090134E-1,-1.3650239E-1,-1.3631672E0,-1.4008833E0,-5.814829E-1,-1.9138589E0,-3.9227397E0,-1.6479722E-1,-1.4598949E0,-6.1272187E0,-1.7181767E0,-3.583946E0,-5.7975926E0,-1.4173625E0,-6.6332155E-1,-4.2976376E-1,-1.8218838E0,-2.1523397E0,-5.5857474E-1,2.2260706E0,6.163325E-1,-2.2651224E-1,-1.2857112E0,7.841528E-1,-2.1605487E0,4.7306868E-1,1.6896936E0,-1.0305512E0,-2.6453698E0,-4.336516E0,-1.017708E0,4.321129E0,1.313926E0,2.1957545E0,2.8512883E-1,-1.3718075E0,4.3361014E-1,3.6179976E0,-3.5387766E-1,1.1418699E-1,-1.0666561E0,-2.1198304E0,-3.3777356E0,5.822854E-1,1.4688854E-1,1.0361797E0,-4.945526E0,1.4400836E0,6.473148E-1,2.9089506E0,1.313165E0],"split_indices":[61,11,66,37,1,37,41,69,69,4,53,5,30,20,1,6,8,17,2,47,5,82,3,1,82,34,31,38,85,29,31,38,63,7,16,42,9,8,0,10,37,43,17,13,35,80,75,13,70,16,26,53,21,17,30,68,77,75,70,0,0,80,53,0,0,0,0,0,0,0,0,0,0,0,0,0,0,0,0,0,0,0,0,0,0,0,0,0,0,0,0,0,0,0,0,0,0,0,0,0,0,0,0,0,0,0,0,0,0,0,0,0,0,0,0,0,0,0,0,0,0],"split_type":[0,0,0,0,0,0,0,0,0,0,0,0,0,0,0,0,0,0,0,0,0,0,0,0,0,0,0,0,0,0,0,0,0,0,0,0,0,0,0,0,0,0,0,0,0,0,0,0,0,0,0,0,0,0,0,0,0,0,0,0,0,0,0,0,0,0,0,0,0,0,0,0,0,0,0,0,0,0,0,0,0,0,0,0,0,0,0,0,0,0,0,0,0,0,0,0,0,0,0,0,0,0,0,0,0,0,0,0,0,0,0,0,0,0,0,0,0,0,0,0,0],"sum_hessian":[4.36416E5,4.07742E5,2.8674E4,3.99265E5,8.477E3,1.1759E4,1.6915E4,3.95301E5,3.964E3,4.245E3,4.232E3,1.0907E4,8.52E2,1.6417E4,4.98E2,6.7769E4,3.27532E5,3.102E3,8.62E2,4.154E3,9.1E1,3.127E3,1.105E3,1.0857E4,5E1,6.86E2,1.66E2,1.1928E4,4.489E3,6E0,4.92E2,6.7503E4,2.66E2,2.34148E5,9.3384E4,1.338E3,1.764E3,8.34E2,2.8E1,3.744E3,4.1E2,8.2E1,9E0,2.821E3,3.06E2,7.05E2,4E2,1.008E4,7.77E2,3.4E1,1.6E1,8.7E1,5.99E2,1.51E2,1.5E1,1.1839E4,8.9E1,3.42E3,1.069E3,4E0,2E0,4.65E2,2.7E1,6.5701E4,1.802E3,2.56E2,1E1,2.27833E5,6.315E3,3.4369E4,5.9015E4,1.076E3,2.62E2,1.166E3,5.98E2,6.25E2,2.09E2,7.36E2,3.008E3,1.13E2,2.97E2,1.5E1,6.7E1,5E0,4E0,2.578E3,2.43E2,2.39E2,6.7E1,1.39E2,5.66E2,2.77E2,1.23E2,1.0041E4,3.9E1,1.28E2,6.49E2,8E0,2.6E1,1.4E1,2E0,8.2E1,5E0,5.28E2,7.1E1,5.3E1,9.8E1,1.2E1,3E0,1.1613E4,2.26E2,7.2E1,1.7E1,2.117E3,1.303E3,1.065E3,4E0,4.57E2,8E0,2.4E1,3E0],"tree_param":{"num_deleted":"0","num_feature":"87","num_nodes":"121","size_leaf_vector":"1"}},{"base_weights":[-3.4699432E-4,-2.8156469E-2,4.4256253E0,2.1751171E-2,-3.093927E0,3.6656651E0,5.9298778E0,-1.4110465E-1,7.243795E-1,-2.7097826E0,-9.276137E0,3.3437302E0,8.179768E0,6.6903443E0,4.0550203E0,-8.723071E-2,-3.345117E0,7.639562E-1,-1.109715E1,-3.9037054E0,-1.189379E0,-1.1606425E1,-3.5584986E0,3.1306498E0,1.02872E1,-2.2004628E0,8.504888E0,6.890125E0,1.8402007E0,-2.0218053E-1,5.920077E0,3.086339E-1,-3.9483336E-1,-4.58823E0,2.3575625E0,7.779879E-1,-1.5994779E1,-6.930497E0,-1.3496961E1,-4.2601604E0,9.394896E-1,3.1610188E-1,-3.1682997E0,-2.4550034E1,-9.835095E0,-4.6411147E0,2.0325062E0,3.214728E0,-3.5244832E0,3.195791E0,1.0264549E0,8.824083E0,-4.7374573E-1,6.7237587E0,3.7245867E0,2.576804E0,-2.5967228E0,-3.9828517E0,9.504294E-2,5.2996187E0,3.4146388E0,8.387042E-2,1.3907487E0,-2.1325776E-1,7.068751E-2,-1.8061593E0,-3.309316E-2,-2.862843E-1,2.992403E0,3.1135526E-1,-2.051155E-2,-6.052777E0,-4.175823E0,-3.7107644E0,-1.6506127E0,-4.5616674E0,-2.6619272E0,-1.2414086E0,-4.7788177E0,-1.4503876E0,1.9712802E0,-1.1701849E0,1.7619708E-1,-8.0873525E-1,-2.9236042E0,-3.6272132E0,-8.199728E0,-2.767544E0,-6.4253435E0,-4.7550626E0,-1.3103366E0,7.178298E-1,-2.4196625E-1,9.89351E-1,-6.0698366E-1,-3.518703E-1,-3.24449E0,2.0952828E0,3.1440094E0,-7.167223E-1,1.0781354E0,7.566622E-1,2.0768793E0,5.425133E-1,1.4510486E0,-1.0155488E-1,-1.3932047E0,-8.614781E-2,7.2430867E-1,1.664482E0,-1.1748496E0],"categories":[],"categories_nodes":[],"categories_segments":[],"categories_sizes":[],"default_left":[0,0,0,0,0,0,0,0,0,0,0,0,0,0,0,0,0,0,0,0,0,0,0,0,0,0,0,0,0,0,0,0,0,0,0,0,0,0,0,0,0,0,0,0,0,0,0,0,0,0,0,0,0,0,0,0,0,0,0,0,0,0,0,0,0,0,0,0,0,0,0,0,0,0,0,0,0,0,0,0,0,0,0,0,0,0,0,0,0,0,0,0,0,0,0,0,0,0,0,0,0,0,0,0,0,0,0,0,0,0,0],"id":9,"left_children":[1,3,5,7,9,11,13,15,17,19,21,23,25,27,29,31,33,35,37,39,41,43,45,47,49,-1,51,53,55,57,59,61,63,65,67,69,71,73,75,77,79,81,83,85,87,89,91,93,95,-1,-1,97,99,101,-1,103,-1,105,107,109,-1,-1,-1,-1,-1,-1,-1,-1,-1,-1,-1,-1,-1,-1,-1,-1,-1,-1,-1,-1,-1,-1,-1,-1,-1,-1,-1,-1,-1,-1,-1,-1,-1,-1,-1,-1,-1,-1,-1,-1,-1,-1,-1,-1,-1,-1,-1,-1,-1,-1,-1],"loss_changes":[5.3716062E4,6.635742E4,3.0934062E3,4.883153E4,1.6473023E4,2.6073867E3,1.2745957E3,5.9801062E4,3.7577438E4,1.1870684E4,5.3681406E3,2.4740957E3,6.6767725E2,6.1521094E2,2.1132158E3,4.1489254E4,4.062413E4,1.883246E4,2.5862383E3,6.3294688E3,8.578197E3,6.3616367E3,7.297295E2,9.3179297E2,8.900098E1,0E0,3.4236133E2,4.8826367E2,2.3105049E2,9.2522285E1,5.6663965E2,1.8737203E4,3.8201656E4,3.01695E4,2.5892102E4,1.7587816E4,3.0054883E2,7.0884033E2,1.2002344E3,4.7982383E3,8.225953E3,1.8733276E3,3.8397793E3,8.481992E2,1.6039609E3,2.3714355E2,2.238588E1,7.1407227E2,3.4734268E2,0E0,0E0,2.7412012E2,4.7539104E1,4.896582E2,0E0,3.6406418E1,0E0,1.2884941E1,6.894989E1,4.0670703E2,0E0,0E0,0E0,0E0,0E0,0E0,0E0,0E0,0E0,0E0,0E0,0E0,0E0,0E0,0E0,0E0,0E0,0E0,0E0,0E0,0E0,0E0,0E0,0E0,0E0,0E0,0E0,0E0,0E0,0E0,0E0,0E0,0E0,0E0,0E0,0E0,0E0,0E0,0E0,0E0,0E0,0E0,0E0,0E0,0E0,0E0,0E0,0E0,0E0,0E0,0E0],"parents":[2147483647,0,0,1,1,2,2,3,3,4,4,5,5,6,6,7,7,8,8,9,9,10,10,11,11,12,12,13,13,14,14,15,15,16,16,17,17,18,18,19,19,20,20,21,21,22,22,23,23,24,24,26,26,27,27,28,28,29,29,30,30,31,31,32,32,33,33,34,34,35,35,36,36,37,37,38,38,39,39,40,40,41,41,42,42,43,43,44,44,45,45,46,46,47,47,48,48,51,51,52,52,53,53,55,55,57,57,58,58,59,59],"right_children":[2,4,6,8,10,12,14,16,18,20,22,24,26,28,30,32,34,36,38,40,42,44,46,48,50,-1,52,54,56,58,60,62,64,66,68,70,72,74,76,78,80,82,84,86,88,90,92,94,96,-1,-1,98,100,102,-1,104,-1,106,108,110,-1,-1,-1,-1,-1,-1,-1,-1,-1,-1,-1,-1,-1,-1,-1,-1,-1,-1,-1,-1,-1,-1,-1,-1,-1,-1,-1,-1,-1,-1,-1,-1,-1,-1,-1,-1,-1,-1,-1,-1,-1,-1,-1,-1,-1,-1,-1,-1,-1,-1,-1],"split_conditions":[1E0,1E0,7E0,1E0,1E0,1E0,1E1,2E0,2E0,1E0,1E0,2E0,1E0,1E0,2E0,1E0,2E0,1E0,1E0,1E0,4E0,7E0,1E0,2E0,1E0,-2.2004628E0,1E0,4E0,1E0,2E0,1E0,1E1,1E0,1E0,2E0,1E0,1E0,1E0,1E0,1E0,1E0,4E0,2E0,1E0,2E0,1E0,1E0,1E0,3E0,3.195791E0,1.0264549E0,1E0,1E0,3E0,3.7245867E0,1E0,-2.5967228E0,1E0,1.1E1,2E0,3.4146388E0,8.387042E-2,1.3907487E0,-2.1325776E-1,7.068751E-2,-1.8061593E0,-3.309316E-2,-2.862843E-1,2.992403E0,3.1135526E-1,-2.051155E-2,-6.052777E0,-4.175823E0,-3.7107644E0,-1.6506127E0,-4.5616674E0,-2.6619272E0,-1.2414086E0,-4.7788177E0,-1.4503876E0,1.9712802E0,-1.1701849E0,1.7619708E-1,-8.0873525E-1,-2.9236042E0,-3.6272132E0,-8.199728E0,-2.767544E0,-6.4253435E0,-4.7550626E0,-1.3103366E0,7.178298E-1,-2.4196625E-1,9.89351E-1,-6.0698366E-1,-3.518703E-1,-3.24449E0,2.0952828E0,3.1440094E0,-7.167223E-1,1.0781354E0,7.566622E-1,2.0768793E0,5.425133E-1,1.4510486E0,-1.0155488E-1,-1.3932047E0,-8.614781E-2,7.2430867E-1,1.664482E0,-1.1748496E0],"split_indices":[0,7,70,1,6,13,75,8,13,19,41,0,1,6,9,75,22,40,33,22,75,75,1,7,21,0,21,33,21,74,12,70,44,61,34,13,13,77,50,4,4,70,7,15,16,2,18,21,70,0,0,14,51,74,0,31,0,15,70,52,0,0,0,0,0,0,0,0,0,0,0,0,0,0,0,0,0,0,0,0,0,0,0,0,0,0,0,0,0,0,0,0,0,0,0,0,0,0,0,0,0,0,0,0,0,0,0,0,0,0,0],"split_type":[0,0,0,0,0,0,0,0,0,0,0,0,0,0,0,0,0,0,0,0,0,0,0,0,0,0,0,0,0,0,0,0,0,0,0,0,0,0,0,0,0,0,0,0,0,0,0,0,0,0,0,0,0,0,0,0,0,0,0,0,0,0,0,0,0,0,0,0,0,0,0,0,0,0,0,0,0,0,0,0,0,0,0,0,0,0,0,0,0,0,0,0,0,0,0,0,0,0,0,0,0,0,0,0,0,0,0,0,0,0,0],"sum_hessian":[4.36416E5,4.33692E5,2.724E3,4.26746E5,6.946E3,1.812E3,9.12E2,3.46447E5,8.0299E4,6.541E3,4.05E2,1.693E3,1.19E2,6.47E2,2.65E2,3.40719E5,5.728E3,8.0032E4,2.67E2,3.663E3,2.878E3,2.87E2,1.18E2,1.644E3,4.9E1,2E0,1.17E2,6.21E2,2.6E1,8.1E1,1.84E2,1.48985E5,1.91734E5,4.703E3,1.025E3,7.9966E4,6.6E1,9.9E1,1.68E2,3.412E3,2.51E2,1.635E3,1.243E3,3.3E1,2.54E2,9.9E1,1.9E1,1.624E3,2E1,4.6E1,3E0,1.13E2,4E0,6.05E2,1.6E1,2.5E1,1E0,5E0,7.6E1,1.67E2,1.7E1,1.47992E5,9.93E2,1.27715E5,6.4019E4,3.563E3,1.14E3,7.15E2,3.1E2,6.1181E4,1.8785E4,1.9E1,4.7E1,1.9E1,8E1,1.21E2,4.7E1,3.378E3,3.4E1,1.24E2,1.27E2,9.8E1,1.537E3,1.161E3,8.2E1,7E0,2.6E1,2.43E2,1.1E1,1E0,9.8E1,1.7E1,2E0,1.599E3,2.5E1,1.6E1,4E0,5.6E1,5.7E1,3E0,1E0,2.8E1,5.77E2,2E1,5E0,1E0,4E0,6.6E1,1E1,1.63E2,4E0],"tree_param":{"num_deleted":"0","num_feature":"87","num_nodes":"111","size_leaf_vector":"1"}}]},"name":"gbtree"},"learner_model_param":{"base_score":"9.462301E1","boost_from_average":"1","num_class":"0","num_feature":"87","num_target":"1"},"objective":{"name":"reg:squarederror","reg_loss_param":{"scale_pos_weight":"1"}}},"version":[2,0,3]}